<?xml version="1.0"?>
<opencv_storage>
<my_svm type_id="opencv-ml-svm">
  <svm_type>C_SVC</svm_type>
  <kernel><type>LINEAR</type></kernel>
  <C>1.0000000000000000e-002</C>
  <term_criteria><epsilon>1.1920928955078125e-007</epsilon>
    <iterations>1000</iterations></term_criteria>
  <var_all>3780</var_all>
  <var_count>3780</var_count>
  <class_count>2</class_count>
  <class_labels type_id="opencv-matrix">
    <rows>1</rows>
    <cols>2</cols>
    <dt>i</dt>
    <data>
      0 1</data></class_labels>
  <sv_total>1</sv_total>
  <support_vectors>
    <_>
      -1.03756804e-002 -4.58022952e-003 -5.73668149e-005 3.50594026e-004
      -4.67476156e-003 -6.43360242e-003 -2.24462664e-003
      -3.66901723e-003 -1.16882855e-002 -1.93648655e-002
      -2.12513166e-003 -5.74116409e-003 -4.74609587e-005 3.47998901e-003
      2.19950173e-003 2.69108429e-003 6.14470150e-003 -9.25741252e-003
      -4.09207132e-004 -8.07144400e-003 2.09710677e-003 2.59224069e-003
      8.23115042e-005 -2.73673423e-003 -3.56778386e-003 -5.72787132e-003
      6.91817608e-004 -1.22199731e-003 -4.34354739e-003 7.12256471e-004
      9.71558475e-005 6.20989921e-003 3.57352779e-004 -1.45800423e-003
      8.40608904e-004 -4.94702894e-004 -1.30304983e-002 -6.17744308e-003
      -7.14348536e-003 -5.24001941e-003 -1.01578643e-003 3.45657603e-003
      6.40817627e-004 7.35508418e-003 -3.07117472e-003 -7.60363415e-003
      -9.05066030e-004 5.59195832e-005 -4.12642723e-003 2.27357401e-003
      2.44277134e-003 1.64565863e-003 1.92887872e-003 -5.87099465e-003
      -5.92193473e-003 -1.17407534e-002 -4.49229963e-003
      -6.35202229e-003 5.76981809e-004 -7.66667246e-004 -8.38733744e-004
      1.73143204e-003 2.87701725e-003 2.29921076e-003 -2.10094862e-002
      -8.53437185e-003 -1.04081836e-002 1.98510871e-003 2.03485996e-003
      7.78817921e-004 -2.74644583e-003 4.96423850e-003 1.86798524e-003
      9.07234382e-004 -1.34910224e-003 -9.54788458e-003 -6.21001329e-003
      -2.13459739e-003 -3.96182109e-003 2.22467748e-003 -1.14059635e-003
      -3.27536394e-003 -4.47705574e-003 -5.66908997e-003
      -6.39892463e-003 -5.65945776e-003 5.36560372e-004 1.27914548e-003
      1.96598168e-003 1.09877139e-004 -3.54143255e-003 -1.65697709e-002
      -2.88543710e-003 -4.98678349e-003 3.69140180e-003 -2.93965382e-003
      6.50331029e-004 -3.74969933e-003 2.49864068e-003 -1.14037725e-003
      -9.04603582e-003 2.81842705e-003 -5.71863784e-004 -2.90032662e-003
      3.28566879e-004 -8.56040977e-004 -9.70469974e-003 5.23638865e-003
      1.17489381e-003 -3.24118580e-003 -7.99691025e-003 -9.49804112e-003
      -1.02200722e-002 1.93721836e-003 -3.57926008e-003 -3.74362059e-003
      4.85171610e-003 4.67079272e-003 -2.32475554e-003 -3.41902487e-003
      8.50442564e-004 -5.00455918e-003 2.55402806e-003 -3.37836542e-003
      1.52654201e-003 1.05816871e-002 -8.32542137e-004 -9.47067607e-003
      -3.84055823e-003 -6.03019027e-003 -8.41057859e-003 1.64813583e-003
      -7.76969828e-003 -3.87086952e-003 4.60021431e-003 5.66366035e-003
      -6.27510063e-003 -1.31852902e-003 -4.59147012e-003
      -5.95451938e-003 4.37562237e-004 -2.66756862e-003 5.11095580e-003
      6.69385726e-003 -5.70726488e-003 -1.04983216e-002 -3.48103140e-003
      2.48502987e-003 8.47469142e-004 -4.90290578e-003 -5.96765475e-003
      -4.85595129e-003 3.29033122e-004 5.31525491e-003 -4.92065633e-003
      -9.97312090e-005 4.16928483e-003 1.47582656e-002 6.91855792e-003
      8.77856626e-004 -3.29077011e-003 1.52618057e-004 -5.64374402e-003
      -4.46270872e-003 1.34644215e-003 2.53112079e-003 -3.61795793e-003
      -4.59490484e-003 -1.60776486e-003 -7.03200791e-003
      -5.52726025e-003 -1.31718686e-003 8.30608420e-003 1.13723679e-002
      7.71174440e-003 5.85608743e-003 3.90092167e-003 -2.34134845e-003
      -1.16030201e-002 -7.23341992e-003 -1.73956796e-003
      -9.33371077e-004 -3.79774766e-003 3.31925973e-003 8.84669181e-003
      2.65928474e-003 -1.12113298e-003 -6.67763781e-003 -5.57777518e-003
      9.09586015e-005 -2.73099332e-003 2.21088808e-003 7.72449560e-003
      8.47473461e-003 8.57993588e-003 5.89850591e-003 -4.54210490e-003
      -4.32262290e-003 -2.59693991e-003 9.53553710e-003 3.07663879e-003
      4.58141835e-003 -2.33768579e-003 -4.92505846e-004 -1.02978637e-002
      -2.01677084e-002 -1.27866194e-002 -1.63706904e-003
      -3.75860929e-003 5.05716493e-003 4.03297180e-003 1.18370401e-003
      -5.06929960e-003 -7.29297521e-003 -1.19920149e-002
      -7.95888808e-003 4.05941671e-003 -1.26750820e-004 4.65969695e-003
      7.10880384e-003 3.56750633e-003 6.23379042e-003 4.93437611e-003
      -3.98675678e-003 -2.29852390e-003 1.00071849e-002 3.39386694e-004
      -1.34303630e-003 2.24732375e-003 -5.50959143e-004 2.13152985e-003
      3.58570903e-003 -4.26189322e-003 6.11519068e-003 1.74183934e-003
      -1.24554441e-003 3.42100183e-003 5.01720840e-003 -4.05216776e-003
      -6.76349597e-003 -3.17509845e-003 -2.61641201e-003
      -1.92969851e-003 2.19242368e-003 -8.74812528e-003 -7.14910682e-003
      -1.03131533e-002 -8.02200008e-003 -1.27437655e-002
      -7.63244042e-003 -1.02831731e-002 2.35364051e-003 1.30043626e-002
      -6.71997573e-003 -9.57141723e-003 -2.25636316e-003 2.63535231e-003
      1.03019201e-003 3.19226994e-004 -7.99705740e-003 1.12245288e-002
      1.78991873e-002 -7.59683596e-003 -1.14995260e-002 -3.35745339e-004
      6.63272291e-003 2.10763025e-003 -9.11798561e-004 -7.45376805e-004
      2.02208962e-002 -5.14384992e-005 -1.50764426e-002 -1.69476531e-002
      -1.23747904e-002 -2.62964633e-003 -9.05060954e-003
      -1.01778228e-002 -1.68380775e-002 5.30844321e-003 7.44868908e-003
      -1.14730932e-002 -1.55363325e-002 -6.51253713e-003 3.70432506e-003
      -3.70171666e-003 -6.20391406e-003 -8.42533261e-003 8.96843523e-003
      2.00836994e-002 -3.80894606e-004 -4.61832946e-003 -3.42160556e-003
      -3.59123503e-003 -1.93446362e-003 -4.21801163e-003
      -1.18148443e-003 1.92064717e-002 1.55405011e-002 2.27885158e-003
      5.16997185e-003 -1.44029083e-003 2.36571021e-003 -1.51872577e-003
      -5.57061750e-003 -4.95972531e-003 1.40602626e-002 -5.04422188e-003
      -1.25013990e-002 -1.35121532e-002 -5.94443316e-003
      -4.00954438e-003 -8.60477984e-003 -6.88069733e-003
      -4.11960483e-003 7.16151018e-003 -7.23261992e-003 -6.14705356e-003
      1.96126336e-003 2.51352042e-003 7.33744116e-007 -4.41879360e-003
      4.78047150e-005 -6.53454009e-003 1.68160550e-004 8.51009972e-003
      2.59899278e-003 2.24630116e-003 -2.55167927e-003 -5.04936499e-004
      -1.80439663e-003 -4.42714291e-003 -4.65549203e-003 7.93833379e-003
      1.22320065e-002 -6.03449997e-004 -3.45383561e-003 3.03432695e-003
      4.74190852e-003 5.84039884e-003 6.27002737e-004 -2.85914430e-004
      1.30625870e-002 -5.30807441e-003 -9.01261251e-003 -1.28585228e-003
      -4.04318998e-004 -4.02142294e-003 -9.21944529e-003
      -5.49380435e-003 -1.23342900e-002 -8.04706756e-003
      -2.17690691e-003 -8.67792964e-003 -5.41087985e-003
      -1.17751455e-003 1.13665883e-003 6.81523886e-007 -2.09249184e-003
      -8.13450664e-003 -8.03846028e-003 7.25764828e-003 1.05095678e-003
      -4.72778222e-003 3.90975300e-004 9.77459829e-004 4.74809622e-003
      4.99759195e-003 3.47214373e-004 9.45211202e-003 3.28092626e-003
      -3.10384692e-003 -5.26006706e-003 -5.33725694e-003
      -1.86609500e-003 7.23705452e-004 -5.24775183e-004 5.97525667e-003
      5.00494894e-003 -6.42772904e-003 2.84979981e-003 -4.89972578e-003
      -4.79587168e-003 -2.83089932e-003 2.03300407e-003 3.13445251e-003
      -3.12111434e-003 -5.98522415e-003 -4.30297339e-003
      -3.91377718e-004 -2.80609098e-003 -7.12668570e-003
      -6.73169130e-003 -1.21629389e-003 -3.85918771e-003
      -8.74720048e-003 -3.95380706e-003 6.09080121e-003 -1.71619386e-003
      -4.15609404e-003 -3.99431167e-003 2.98023713e-003 -1.60507299e-003
      -7.23198464e-004 8.42704065e-003 6.58609997e-003 4.78264922e-003
      -3.53209535e-003 -8.84423871e-003 -6.41976763e-003
      -2.25342315e-004 -3.90319386e-003 -4.47985576e-003 2.00368324e-003
      2.17692018e-003 -4.78588324e-003 8.55442428e-004 2.30254186e-003
      -3.71526834e-003 2.67996779e-003 -5.32268779e-004 -3.19736381e-003
      -4.68055438e-003 -7.77834514e-003 -1.83391967e-003
      -1.52263802e-003 -7.15623843e-004 1.50607887e-003 5.47462190e-003
      1.01746432e-003 5.08905970e-004 -3.43127758e-004 -6.98642293e-003
      5.39111905e-003 -7.00713554e-003 -1.15173440e-002 -3.63846496e-003
      2.54315510e-003 -3.08322581e-003 -3.09904874e-003 -2.35193945e-003
      3.63482884e-003 5.93136763e-003 -4.73682117e-003 -5.17634535e-003
      3.05244117e-003 1.00047123e-002 -1.01635617e-003 -2.62485445e-003
      -4.37558116e-003 2.12479848e-003 -5.41373761e-003 3.85241467e-003
      -5.69993490e-003 -2.16240622e-003 2.43105507e-003 -1.99444196e-003
      -2.36604386e-003 -1.59952464e-003 -7.24936137e-003 3.83235817e-003
      5.03912289e-003 -4.36695665e-003 -3.53261712e-003 2.16433685e-003
      -1.08187757e-002 -9.67484061e-003 -5.38828271e-003
      -6.83552818e-003 5.11602638e-003 -2.07176246e-003 -2.32127029e-003
      3.43251764e-003 4.25536279e-003 2.10021436e-003 -2.57587945e-003
      -6.02530548e-003 1.89954328e-004 4.09500441e-003 -6.70174044e-003
      -5.68332151e-003 2.13790312e-003 -4.05682623e-003 -7.29225436e-003
      -1.10750785e-002 -1.33747580e-002 -8.54303595e-003 4.29063151e-003
      5.53200953e-003 -2.41090707e-003 4.80506290e-003 3.61065706e-003
      -8.85612890e-003 -1.41579201e-002 -4.86779213e-003
      -1.25911820e-003 -3.49823589e-004 -4.38335631e-003
      -2.92014168e-003 4.13469272e-003 -3.83064873e-003 -7.04907114e-003
      -1.12643410e-002 -1.32856658e-002 -5.34354569e-003 6.75070425e-003
      -3.21013480e-003 -4.26547090e-003 -3.46986996e-003
      -7.83774257e-003 -1.10234097e-002 -1.27778593e-002
      -1.53632890e-002 -5.83178038e-003 7.97007885e-003 4.17194387e-004
      -6.50591496e-003 -7.51215126e-003 -4.89069847e-003
      -7.30222184e-003 -1.73501968e-002 -2.40675323e-002
      -2.36519310e-003 1.08016492e-003 4.32950037e-004 1.84864225e-003
      3.50862532e-003 -4.64700116e-003 -1.15083801e-002 -9.67084430e-003
      -6.96809031e-003 6.27654721e-004 9.82330833e-003 6.99222554e-003
      6.35521021e-003 7.27413455e-003 1.24213146e-003 -4.79974644e-003
      -1.22086573e-002 -1.00380415e-002 4.56134137e-003 3.51001718e-003
      -1.12265320e-002 -3.63369402e-003 -2.69391737e-003
      -5.14966436e-003 -8.49824212e-003 -6.87368074e-003
      -6.78840792e-003 4.50869650e-003 4.92196158e-003 -8.40736926e-003
      -5.24662808e-003 -5.11274626e-003 -2.92864698e-003
      -7.28426222e-003 -1.27385734e-002 -1.05286362e-002 5.48157003e-003
      1.11622047e-002 -1.22763561e-002 -6.59053260e-003 -3.89139890e-003
      -1.62915920e-003 -7.25502474e-003 -8.21754709e-003
      -4.05285507e-003 1.23812221e-002 7.75724929e-003 -9.02455859e-003
      -9.23472643e-003 -7.00990437e-003 -1.01516508e-002
      -1.50987022e-002 -1.62952654e-002 -9.04482789e-003 1.41999368e-002
      1.08790165e-002 -7.22876750e-003 -3.84477223e-003 -7.98841659e-003
      1.65775593e-004 -8.71230848e-003 -1.19260242e-002 -7.81725906e-003
      1.60028748e-002 8.30702297e-003 -1.62290130e-002 -1.06970863e-002
      -1.34823285e-002 7.79171428e-003 -6.02065260e-003 -1.23727778e-002
      -1.59171075e-002 1.18544456e-002 2.18673330e-002 -8.06540065e-003
      -1.01712784e-002 -1.18375542e-002 -1.28324341e-003
      -1.30519914e-002 -2.10573040e-002 -1.35119837e-002 2.00115684e-002
      2.00521797e-002 -1.35862185e-002 -1.60194580e-002 -1.53390532e-002
      2.84178811e-003 -1.16749061e-002 -2.30368096e-002 -2.62971409e-002
      1.23037565e-002 3.58303962e-003 -1.40194241e-002 -4.15266864e-003
      -1.07249487e-002 1.82953279e-003 -5.90696000e-003 -6.99796714e-003
      -1.48526076e-002 2.64114677e-003 1.07934431e-003 -1.17790326e-002
      2.07107677e-003 -7.97141111e-004 2.54163286e-003 -3.73855641e-004
      -5.96996676e-003 -1.13722021e-002 8.67626537e-003 1.27812903e-002
      -1.22710317e-002 -7.12505961e-003 -9.99946892e-003 6.33367896e-003
      -7.33473478e-003 -1.47015899e-002 -1.87081713e-002 1.23843621e-003
      4.36236896e-003 -1.24041073e-003 1.07752951e-002 5.55411156e-004
      1.19682830e-002 2.14968852e-004 -8.10036808e-003 -1.23667773e-002
      5.23801055e-003 -2.02198559e-003 -7.39372522e-003 4.44073841e-004
      -5.40326117e-003 -5.05785085e-003 -6.57471828e-003
      -1.35591906e-002 -1.12497369e-002 2.82748067e-003 1.00465044e-002
      -2.19791010e-003 1.03907532e-003 -2.07806006e-004 -3.26170260e-003
      -7.92928692e-003 -1.36125293e-002 -7.93607812e-003 7.20068906e-003
      -6.81125792e-004 1.32671639e-003 6.65909750e-003 -1.67146442e-003
      1.53667550e-003 -7.98328687e-003 -1.07761417e-002 -1.07996706e-002
      1.12570648e-003 -5.29882964e-004 -1.64567854e-003 6.25048578e-003
      6.30232599e-003 3.91279673e-003 -9.55175422e-003 -1.19495038e-002
      -1.31071853e-002 6.52050250e-004 6.89879572e-003 -1.31803157e-003
      -1.16858631e-003 1.78002159e-003 -7.49048486e-004 -7.45868636e-003
      -9.14901495e-003 -1.41345616e-002 2.79005081e-003 1.53992511e-002
      5.11021307e-003 2.80303721e-005 5.21704229e-003 8.33774102e-004
      2.21674074e-003 -6.14862330e-003 -1.00363763e-002 9.24233999e-003
      1.92943192e-003 -8.37688055e-003 -3.15805431e-004 5.06331120e-003
      3.73792439e-003 -7.41241453e-003 -1.17364107e-002 -1.57036651e-002
      -2.01823399e-003 -1.73928696e-004 -9.67827439e-003
      -9.16657969e-003 2.98258103e-003 7.92126078e-003 -5.20891510e-003
      -1.13701709e-002 -1.25975749e-002 -2.22626585e-003 1.82711948e-002
      6.47225277e-003 9.30997019e-004 2.02073576e-003 -1.04489899e-003
      3.11830430e-003 -3.91559349e-003 -4.52085445e-003 9.99872759e-003
      1.65019631e-002 -2.93784309e-003 2.20788969e-003 1.98022652e-004
      3.53478338e-003 -6.96871011e-003 -6.99102692e-003 2.73689337e-004
      1.32315606e-002 -4.72104177e-003 -1.72533952e-002 -1.21369781e-002
      -2.92690122e-003 2.36298819e-003 -1.29894912e-003 -7.05802860e-003
      -8.32291692e-003 -3.81276361e-003 -4.44661593e-003
      -2.29389109e-002 -1.11706480e-002 -3.81149841e-003
      -6.28644787e-003 -4.74341679e-003 -1.02645345e-002
      -1.01007111e-002 -4.36550763e-004 1.92792825e-002 -1.68033366e-004
      8.09449761e-004 -6.97985233e-004 -4.63405345e-003 -6.43839035e-003
      -4.37916163e-003 4.43989411e-003 2.06833798e-002 1.67095196e-002
      -8.85956734e-003 -7.61887943e-003 -7.90098310e-003 4.19931457e-004
      -3.78346024e-003 -3.85954906e-003 1.23704504e-003 2.03849208e-002
      3.17729823e-003 -1.65630449e-002 -7.23602343e-003 -1.61220366e-003
      -6.20434759e-004 -5.00176940e-003 -5.16193872e-003
      -4.38327529e-003 7.88092520e-003 -1.13121339e-003 -1.57530829e-002
      -9.08462051e-003 1.59196265e-004 7.18346005e-003 -7.23074144e-003
      -6.18706830e-003 -9.32837836e-003 2.72478908e-003 2.13215407e-002
      -1.35257058e-002 -1.13710612e-002 -6.43368391e-003 6.61046477e-003
      -3.21373320e-003 -5.75875863e-003 -9.09772702e-003 1.83392595e-002
      1.16859078e-002 -7.79253757e-003 -8.98313522e-003 -1.37194805e-003
      9.60316695e-003 9.78158932e-005 -2.48637330e-003 -7.77145242e-003
      1.74192432e-002 5.65447193e-003 -1.47660933e-002 -8.20484012e-003
      1.20320846e-003 7.89650623e-003 -4.02416009e-003 -7.89617281e-003
      -1.17863147e-002 4.05928958e-003 4.40973602e-003 -7.82304816e-003
      -3.47654871e-003 -2.09470559e-003 6.52418379e-003 -4.66847501e-004
      -5.67385694e-003 -1.40061295e-002 5.44037251e-003 -2.27738965e-005
      -4.98731155e-003 -7.71026919e-003 -3.69081204e-003 8.50465987e-003
      -1.81534910e-003 2.05623917e-003 1.15027919e-003 5.43992640e-003
      8.76878039e-004 -5.36578335e-003 -1.99395115e-003 1.27975584e-003
      8.06030817e-003 -2.47458112e-003 5.39234886e-003 7.59868324e-003
      4.96215466e-003 -4.22216579e-003 -4.58047679e-003 -2.56395340e-003
      -2.81493994e-003 7.42030842e-003 -7.32926273e-005 3.05846625e-004
      -9.81855299e-003 -6.35824259e-003 -2.31400924e-003 1.10225985e-004
      3.62721691e-003 9.57158336e-004 1.22643011e-002 -3.08806729e-003
      8.18481552e-004 -6.65404322e-003 3.32331890e-003 1.08384725e-003
      -5.91862807e-003 -1.52014475e-003 4.91402287e-004 3.45709710e-003
      -2.36867880e-003 5.33866987e-004 -5.47109498e-003 -1.18606724e-003
      7.65867950e-003 -3.43022449e-003 -3.44292261e-003 1.01318734e-003
      8.02217424e-003 8.60887859e-003 6.23176200e-003 -6.05393853e-003
      4.78897803e-003 2.52585439e-003 -2.49717617e-003 -1.12875656e-003
      1.20494151e-004 5.51463058e-003 -3.09891230e-003 -4.97539714e-003
      -1.44129219e-002 1.88004831e-003 4.14621830e-003 -9.58923157e-003
      -7.22606666e-003 -2.25118594e-003 8.46696645e-003 5.08478889e-003
      -7.85045500e-004 -7.24907266e-003 -2.10411893e-003 5.57769695e-003
      -1.76494778e-003 -3.78369470e-003 -4.05815383e-003 5.39854495e-003
      5.70485368e-003 8.45045410e-003 1.05755367e-004 4.63544531e-003
      1.11442339e-002 -6.22216100e-003 -3.38298082e-003 -4.39706229e-004
      1.42900122e-003 6.48002548e-004 5.25404420e-003 -4.66597639e-003
      8.09825025e-003 8.94889003e-004 -2.11962424e-002 -1.13380319e-002
      -3.05393920e-003 6.03769673e-003 -1.66993425e-003 -5.49238548e-003
      -9.31642950e-003 -2.00363714e-003 2.32449523e-003 -1.02837523e-002
      -3.34860338e-003 5.28161600e-003 1.24221882e-002 -1.65352761e-003
      -4.87253396e-003 -1.19725307e-002 2.33057584e-003 3.13137681e-003
      -6.28111698e-003 -1.98581931e-003 -6.33270480e-004 5.24305506e-003
      -2.81825732e-003 -3.95008922e-003 -6.91051409e-003 3.17748124e-003
      -2.90720514e-003 -4.89890063e-003 -1.32239982e-003 6.15169620e-003
      9.79697239e-003 5.27395867e-004 -4.81276726e-003 -3.70201305e-003
      -2.35126819e-003 -3.50998691e-003 1.64012145e-003 2.53200228e-003
      3.77827114e-003 1.43654291e-002 2.23468582e-004 -8.49187840e-003
      -1.27490452e-002 2.75262602e-004 -1.75075035e-003 6.26997091e-003
      7.01639801e-004 3.96007160e-003 1.54700475e-002 4.80971159e-003
      -1.23722656e-002 -9.49089322e-003 2.88542273e-004 -4.86056041e-003
      -4.12731111e-004 -4.49543446e-003 7.43883895e-004 3.07614100e-003
      3.59857688e-003 -4.38352954e-003 2.44412641e-003 -2.99755344e-003
      7.09528290e-003 1.67702977e-003 -9.36624035e-003 -7.51604978e-003
      -3.65759805e-003 -6.70932001e-003 -3.79957282e-003 1.63501897e-003
      -2.41561770e-003 4.81668999e-003 -1.09459812e-004 -5.49453683e-003
      -1.96564873e-003 9.82634444e-003 8.15927284e-004 -1.44223627e-002
      -1.41139713e-003 1.04692308e-002 8.52554478e-003 -5.22162206e-003
      -1.59360636e-002 -1.05803907e-002 -1.95674319e-003
      -2.73092580e-003 -6.27753418e-003 3.82458698e-003 8.86884145e-003
      7.47433119e-003 1.65706058e-003 -3.68970889e-003 -2.97908508e-003
      -1.80396310e-003 -6.64325617e-003 -8.04812741e-003
      -3.08057969e-003 -5.49525861e-003 6.58188901e-006 1.46834261e-003
      6.93735084e-004 2.86478037e-003 1.25510513e-003 -7.84492760e-004
      -7.92090595e-003 -1.37781091e-002 -3.84493289e-003 6.66182674e-003
      -7.03441072e-003 -1.00020654e-002 -1.07661411e-002
      -7.81266857e-003 -3.50506115e-003 -3.26723675e-003 3.72150145e-003
      7.07903970e-003 1.33666384e-003 -4.58189147e-003 2.88546272e-003
      -2.67253234e-003 2.57511297e-003 1.67743559e-003 -2.95329909e-003
      -2.51515140e-003 5.57086756e-003 -3.19602876e-003 -4.84604435e-003
      3.27110291e-003 4.43814322e-003 6.41300401e-004 -2.50537926e-003
      -5.18233934e-003 -5.62207634e-003 -1.88405206e-003
      -1.89290964e-004 -3.70032899e-003 3.75568890e-003 4.55852225e-003
      3.26446956e-003 -1.64020562e-003 -6.12008153e-003 -3.01533262e-003
      -2.42539868e-003 -3.65758874e-003 -8.77148192e-003
      -1.09604181e-004 1.98866660e-003 3.74997500e-003 1.53941300e-003
      -3.16508673e-003 -5.88603690e-003 3.22727254e-003 2.76467204e-003
      -1.20577002e-002 -5.00704348e-003 1.80231314e-003 9.63759702e-003
      3.39564052e-003 -3.33135831e-003 -7.89236091e-003 5.99965593e-003
      1.21820783e-002 -8.63912702e-003 -1.11044459e-002 -8.17403384e-003
      6.26704143e-003 -8.18963815e-003 -2.77682464e-003 -6.23891363e-004
      1.87993683e-002 5.33061801e-003 -1.11865615e-002 -1.10421097e-002
      -9.54335183e-003 -1.13423001e-002 -1.47479717e-002
      -9.12397727e-003 -1.31376160e-004 1.64289493e-002 -2.43897713e-003
      -1.73183903e-002 -1.43279089e-002 -6.31980598e-003 8.53324588e-003
      -7.62444548e-003 -4.07529203e-003 -3.28909606e-003
      -6.03558437e-004 -1.51362200e-003 -1.35213360e-002
      -7.43194297e-003 -3.02505377e-003 -5.13063394e-004
      -1.09966351e-002 -1.28322411e-002 -9.56146605e-003
      -1.77909923e-003 1.67884529e-002 -1.08423224e-002 -1.06424503e-002
      -9.58247297e-003 -1.45994755e-003 -1.49669247e-002
      -1.43821305e-002 -4.22142679e-003 1.84275322e-002 2.20969245e-002
      -1.35221174e-002 -1.71312056e-002 -8.44256673e-003 9.97038907e-004
      -1.65265705e-002 -1.50919398e-002 -1.58839785e-002 2.19841227e-002
      6.75301207e-003 -1.24197090e-002 -5.78811904e-003 -5.21375099e-003
      -3.51716089e-003 -1.48958489e-002 -1.22275595e-002
      -9.09456890e-003 7.93067273e-003 -2.69540399e-003 -1.64255314e-002
      -1.01379948e-002 -6.15593884e-003 8.08765006e-004 -1.63465105e-002
      -1.49998441e-002 -2.16606185e-002 4.81646229e-003 1.40540088e-002
      -1.12814605e-002 -7.40626547e-003 -3.35396244e-003 6.55531790e-003
      -4.88147326e-003 -6.26970176e-003 -1.01458710e-002 1.04877613e-002
      1.18350834e-002 -7.14895362e-003 2.77786341e-004 -2.62101821e-004
      1.60791818e-002 5.41608408e-003 -1.23163185e-003 -4.09683259e-003
      6.75212871e-003 -2.12785701e-004 -1.79230366e-002 -1.01250578e-002
      -8.09149910e-003 1.72017468e-003 -8.02650582e-003 -1.39523819e-002
      -2.12575253e-002 2.29262063e-004 2.15327437e-003 -2.03167107e-002
      -1.14530902e-002 -1.27016185e-002 7.08777225e-003 -5.94635727e-003
      -1.88947804e-002 -1.56407487e-002 7.69726885e-003 8.19695089e-003
      4.98992624e-004 5.06227557e-003 2.00179638e-003 1.76605699e-003
      -1.55425048e-003 -6.50004577e-003 -1.12245732e-003 9.83086322e-003
      9.04218107e-003 8.86443071e-003 1.22846914e-002 4.19702148e-003
      2.31701857e-003 -5.86942071e-003 -3.32871405e-003 4.04035021e-003
      1.73278023e-002 1.31675787e-003 -9.55795497e-003 4.62704746e-004
      -8.29759147e-003 -4.44094371e-003 -1.40801808e-002
      -1.91598721e-002 -1.76760945e-002 4.22986411e-003 9.07933898e-003
      3.23872897e-003 -6.29130751e-004 -6.99231634e-003 -1.22005520e-002
      -2.04621851e-002 -1.97603349e-002 -1.35685354e-002 6.20303629e-003
      2.01925039e-002 1.47526804e-002 7.34461984e-003 6.53787656e-003
      6.05535461e-003 -2.73295073e-003 -5.93456440e-004 5.02408808e-003
      2.12685615e-002 1.11659877e-002 3.30027239e-003 2.97898217e-003
      5.98156359e-003 8.90175626e-003 8.45776463e-004 1.46469974e-003
      -2.14409505e-004 1.09276585e-002 6.88482076e-003 -1.21942605e-003
      -2.56343978e-003 -3.72339739e-003 -4.72141150e-003
      -1.21310679e-002 -1.15133151e-002 -2.08815723e-003 3.89810465e-003
      -1.00513571e-003 -1.21597182e-002 -5.42793609e-003
      -4.54627816e-003 -8.52718367e-004 -6.40941318e-003
      -6.66247308e-003 -6.21925713e-003 -7.11237080e-003 1.37218852e-002
      1.65055832e-003 6.50746655e-003 1.14854854e-002 1.06015336e-002
      7.69504067e-003 7.38600967e-003 6.80518942e-003 1.33164851e-002
      7.68025499e-003 -7.49596953e-003 -3.87067965e-004 4.79763327e-003
      5.00135031e-003 1.44886703e-003 -7.59974588e-004 6.42277708e-004
      1.25119193e-002 -5.51122590e-004 -1.61071438e-002 -1.77559676e-004
      5.11078583e-003 6.08470431e-003 1.63630513e-003 3.12915863e-003
      -1.42306893e-003 -5.55168744e-003 -4.11095610e-003
      -1.90610904e-002 -6.35088561e-003 7.91958126e-004 -3.88028566e-004
      -3.40786064e-003 -1.32444536e-003 -9.55828279e-003
      -8.00094195e-003 1.96603909e-002 -1.75526214e-003 -9.08561517e-004
      5.56556042e-004 6.89777837e-004 2.63854308e-004 3.18567571e-003
      2.58336752e-003 1.66299120e-002 1.45777399e-002 -8.05274933e-004
      1.92507019e-003 5.42564550e-003 2.08584052e-002 1.54283451e-004
      5.40771475e-003 4.82160877e-003 1.25712622e-002 3.06863175e-003
      -1.18876696e-002 -3.19035095e-003 3.38376267e-004 -4.15380811e-003
      -3.32842884e-003 5.99711027e-004 -8.87218956e-003 -3.36122257e-003
      -3.92528996e-003 -1.24444831e-002 1.24253030e-003 4.21837345e-003
      7.81258848e-003 8.43523187e-004 -3.99953453e-003 -9.70238168e-003
      -8.02875962e-003 1.30191352e-002 1.17974088e-003 3.33546824e-003
      6.56360621e-003 1.27568003e-002 -4.82040079e-004 -6.23562722e-004
      6.27376430e-004 8.65968410e-003 1.22042531e-002 9.28378850e-003
      9.54967458e-003 7.58642331e-003 1.60583742e-002 5.68554690e-003
      3.95392720e-003 3.38145968e-004 8.39312095e-003 -5.98347327e-003
      -1.42880175e-002 -3.92866926e-003 4.13676118e-003 9.94239189e-003
      7.64882308e-004 -1.13025168e-002 -1.55333960e-002 -1.11458385e-002
      -2.11551646e-003 -9.46225226e-003 -2.28237687e-003 8.46145116e-003
      1.62041467e-002 5.23977960e-003 -9.52296425e-003 -1.67726763e-002
      -8.34533013e-003 6.82677981e-003 5.94010390e-003 2.02775653e-003
      4.58222954e-003 1.04461247e-002 5.05433744e-003 4.76441020e-003
      2.03231553e-004 3.33683519e-003 7.00754579e-003 4.81888466e-003
      6.22483809e-003 1.11606494e-002 2.01147869e-002 9.48896632e-003
      1.29453763e-002 3.73027613e-003 2.78504821e-003 -9.88769066e-003
      -6.45111548e-003 -6.75471267e-003 4.24271170e-003 1.28924567e-002
      1.92195352e-003 -5.30455122e-003 -1.17950337e-002 -1.59227103e-002
      -1.22431321e-002 -8.33322667e-003 -1.44319003e-002 5.91283059e-003
      1.40239699e-002 1.22856041e-002 8.21149349e-003 -1.98516832e-003
      -1.31861698e-002 6.10050978e-003 7.49401143e-003 5.89882443e-003
      1.01751788e-002 1.77203994e-002 7.18085840e-003 7.69840088e-003
      1.50039722e-003 2.65531335e-003 7.77044275e-004 -1.06435233e-004
      5.36228204e-003 1.19389566e-002 2.17558835e-002 1.11590736e-002
      7.29025993e-003 1.15849162e-002 7.92567339e-003 -1.12209227e-002
      -1.63263958e-002 -1.45562124e-002 1.14586670e-003 7.87088368e-003
      5.03368722e-003 -2.15331698e-003 -1.17916139e-002 -1.37897832e-002
      -8.76229163e-003 -1.50690209e-002 -3.01430607e-003
      -1.93125068e-003 8.75506271e-003 -1.29249925e-003 -7.69626489e-003
      -1.02312304e-002 -8.05269368e-003 -2.65085627e-003
      -1.43624395e-002 -9.53124763e-005 4.33213497e-003 1.68081690e-002
      7.88161065e-003 3.08197015e-003 5.61019406e-003 4.29378590e-003
      9.54063609e-003 2.41115130e-003 8.06340668e-003 1.15924142e-002
      2.48462334e-002 1.67084821e-002 1.26144364e-002 6.07757131e-003
      1.07411882e-002 -1.33023756e-002 -1.80063527e-002 -4.00605472e-003
      -5.70268231e-003 3.48418136e-003 -5.05565433e-003 -7.82237481e-003
      -1.24655589e-002 -8.84585734e-003 -3.48738814e-003
      -3.29987379e-003 3.51427263e-003 7.76769454e-003 1.65882949e-002
      7.25148525e-003 2.28964770e-003 -1.07821096e-002 -2.12268368e-003
      3.16393818e-003 8.05454236e-003 8.64085462e-003 6.59591751e-003
      1.72879696e-002 8.82641133e-003 2.09964020e-003 -9.34384204e-003
      1.45267160e-003 8.27090628e-003 1.14167454e-002 8.36778898e-003
      6.55108923e-003 1.62936356e-002 7.79153034e-003 -2.98515777e-003
      -6.29296759e-003 6.92022499e-003 -2.34688795e-003 -7.88261276e-003
      -4.27347329e-003 3.80568719e-003 1.09543391e-002 -1.48418374e-004
      -3.19294771e-003 -1.86663251e-002 -2.42257328e-003 5.12304762e-003
      7.06589688e-003 1.71579816e-003 3.59321409e-003 8.97694845e-003
      -8.00776063e-004 -9.68838856e-003 -1.54595552e-002
      -3.21614719e-003 6.60121674e-003 -1.92274014e-003 -1.76418864e-003
      2.44123931e-003 1.01630371e-002 1.65621372e-004 -9.25463438e-003
      -6.87829778e-003 8.73964466e-003 9.67496820e-003 -5.60815260e-003
      -8.07958841e-003 -3.94467916e-003 7.85930431e-004 -3.60091240e-003
      -3.48595111e-003 8.15759995e-004 1.25900349e-002 5.38868178e-003
      -1.18280563e-003 -1.13196780e-004 -6.59605954e-004
      -8.09557270e-004 -3.86429857e-003 -1.51647413e-002
      -1.66502707e-002 6.48003211e-003 1.43415984e-002 4.79361927e-003
      -6.28995651e-004 4.30271681e-003 2.89511494e-003 -2.42468109e-003
      -6.91355066e-003 -8.23208503e-003 1.07056955e-002 9.66581050e-003
      -5.27472608e-003 -1.00275772e-002 -1.15266219e-002
      -7.20876362e-003 -3.40436050e-003 -8.10156856e-003
      -1.82705570e-003 9.90585983e-003 1.06831212e-002 -7.52262399e-003
      -1.00348042e-002 -8.92098807e-003 -3.23200668e-003
      -2.68715806e-003 -9.62380320e-003 -5.36637241e-003 1.26856221e-002
      1.85181480e-002 4.36712801e-003 -9.24288668e-003 -3.26309912e-003
      1.94252597e-003 -4.82063927e-003 -1.10145956e-002 -9.98651795e-003
      1.43321548e-002 1.75989196e-002 -1.47840707e-004 -9.32086539e-003
      -1.03600593e-002 1.53870569e-004 6.12660777e-004 -7.23453145e-003
      -9.25705396e-003 1.85072683e-002 5.34064509e-003 -1.00761810e-002
      -7.71252904e-003 -4.39578108e-003 4.43791226e-003 -2.66925734e-003
      -4.74774279e-003 -1.19806426e-002 9.67884064e-003 3.09476536e-003
      -1.19536817e-002 -5.69561077e-003 -2.28924706e-004 1.13574574e-002
      -2.36664200e-004 -6.20678300e-003 -1.86258927e-002 6.74260315e-003
      1.43358894e-002 -9.36754514e-003 -1.24310469e-002 -7.56827276e-003
      4.38026851e-003 3.37736355e-003 -1.27137860e-003 -8.37493315e-003
      2.05608252e-002 3.63200787e-003 -1.25184860e-002 -1.26935588e-002
      -3.57690756e-003 3.52763431e-003 -1.41146046e-003 -7.64437206e-003
      -1.05589880e-002 7.16243032e-003 3.49063962e-003 -5.50329359e-003
      -2.69854837e-003 2.74133682e-003 1.06325336e-002 -7.79389590e-003
      1.99679844e-003 -7.76816159e-004 3.72819370e-003 3.37478518e-003
      -3.49784805e-003 -1.89324387e-003 3.58799868e-003 6.49944646e-003
      -9.34866350e-003 -9.29952599e-003 -5.46847656e-003 2.61572795e-003
      1.49709487e-003 -3.96156078e-003 -7.79908383e-003 -6.33902382e-003
      1.52860314e-003 -1.14497291e-002 -1.64943771e-003 -6.74314192e-003
      -2.78469059e-003 -5.04838256e-003 2.98966072e-004 -8.12349003e-003
      -3.14789102e-003 3.15821893e-003 -1.05085075e-002 -5.89939021e-003
      -3.97891458e-003 -2.91507156e-003 8.75593070e-003 2.27070949e-003
      3.42863891e-003 2.51316279e-003 8.74112640e-003 -9.22339689e-003
      -7.85378087e-003 -5.81766153e-003 7.51847494e-003 7.42701255e-003
      7.28950778e-004 -9.27743502e-004 -4.21975087e-003 1.22551539e-003
      -1.51260123e-002 -1.22819310e-002 -1.31114610e-002 3.92533140e-004
      -4.39876411e-003 -4.59795678e-003 -2.81800702e-003
      -9.79342964e-004 6.35886239e-003 -8.50585941e-003 -3.88385053e-003
      -2.77044810e-003 3.48466076e-003 -7.27403397e-003 -3.81845678e-003
      -2.07972969e-003 -9.17965267e-003 -1.87570916e-003
      -1.85826030e-002 -7.09964428e-003 -1.50251267e-002
      -8.81915912e-003 9.26507637e-003 -1.39930658e-003 6.05153095e-004
      1.58905063e-003 6.87856926e-003 -9.27081041e-004 -8.96422938e-003
      -1.39510967e-002 1.42091769e-004 1.83776848e-003 -9.90193523e-003
      -2.19549774e-003 -6.26655668e-003 1.16537437e-002 -5.06194914e-003
      -1.93316843e-002 -1.28328288e-002 4.79070656e-003 2.28764117e-003
      -7.15845451e-003 1.42592576e-003 -5.92845317e-004 1.68558117e-003
      -1.32436268e-002 -1.00754490e-002 -1.38380574e-002
      -6.28380198e-003 2.48244475e-003 -1.02843149e-002 -1.21683428e-004
      -3.08291102e-003 7.02135637e-003 -1.04622375e-002 -1.17480969e-002
      -1.55710625e-002 -7.69102247e-003 1.64480060e-002 1.89940189e-003
      2.14513950e-003 -2.01175385e-003 7.39316689e-004 -1.27096996e-002
      -1.80772524e-002 -1.44117493e-002 1.34362243e-002 2.05924623e-002
      1.04505650e-003 -2.35574972e-003 -2.53104372e-003 -5.29963477e-003
      -1.75980646e-002 -2.14688890e-002 -1.38343517e-002 1.40210353e-002
      8.23653489e-003 -5.65482071e-003 -1.72254385e-003 -1.28206611e-003
      3.87173775e-003 -1.12977866e-002 -7.52895977e-003 -4.86577768e-003
      2.38254294e-003 8.99614673e-003 -3.58955050e-003 -5.23083890e-003
      -3.14360042e-003 -4.22267150e-003 -9.67532676e-003
      -9.82418656e-003 -6.09316444e-003 -6.36708137e-005 2.28872895e-002
      2.19625700e-003 1.91392982e-003 2.17379397e-003 -1.37597017e-004
      -5.73903834e-003 -1.02334637e-002 -1.47010759e-003 1.77873634e-002
      5.41573763e-003 3.84550425e-004 7.92106264e-004 1.10422459e-003
      3.25513957e-003 -3.07797035e-003 -3.98688298e-003 -5.25382406e-004
      6.29314128e-003 7.28216255e-003 -2.31989543e-003 -1.20906834e-003
      2.17377348e-003 1.95134711e-003 -2.02411879e-003 -1.52646832e-003
      -1.61333580e-003 2.28508166e-003 3.35921347e-003 -2.65652104e-003
      4.50991280e-003 6.95273234e-003 4.21024021e-003 2.90825759e-004
      -3.39172571e-003 -1.09318541e-002 -2.01388891e-003 1.70801382e-003
      2.54701846e-003 9.02800914e-003 6.76550111e-003 1.05209723e-002
      6.27214042e-003 1.35660800e-003 -4.75056330e-003 2.58625543e-004
      -3.20890732e-003 3.18707037e-003 7.07068015e-003 6.59417128e-003
      3.02308076e-003 5.06242178e-003 3.77458031e-003 -5.24485949e-003
      -3.98219004e-003 -7.37413764e-004 5.95160807e-003 1.17599098e-002
      1.45003889e-002 1.23176891e-002 1.03596374e-002 1.81624055e-005
      -1.20778065e-002 -8.78832303e-003 -3.50375078e-003 3.54984496e-003
      7.14063831e-003 8.48762318e-003 1.01200715e-002 7.33703608e-003
      1.13938656e-003 -9.32370033e-003 -1.06976740e-002 -2.62556423e-004
      -2.34209001e-003 4.69466392e-003 4.59343055e-003 7.28588179e-003
      2.21949234e-003 1.88231480e-003 -7.47035118e-003 -7.02899415e-003
      -9.66885418e-004 -1.53913547e-003 8.27272423e-003 8.32440611e-003
      1.40488315e-002 7.20133167e-003 -1.26036000e-004 -9.62623581e-003
      -9.28357337e-003 -7.36741442e-003 -4.60424041e-003 1.69735122e-003
      3.62890004e-003 1.43493842e-002 7.02341786e-003 4.45255823e-003
      -7.61927525e-003 -6.22850843e-003 -1.34761329e-003 2.71927589e-003
      8.03203601e-003 8.81543197e-003 1.71567574e-002 1.45642338e-002
      1.00382632e-002 1.74982287e-003 -7.21469522e-003 -7.63070351e-003
      -4.14738199e-003 2.11733714e-005 1.78286934e-003 8.20128899e-003
      7.34100305e-003 -4.69440920e-003 -1.25722410e-002 -1.38383973e-002
      -8.21793452e-004 -3.42186744e-004 4.17998619e-003 9.88358259e-003
      1.64416321e-002 1.05104316e-002 1.27452542e-003 -5.06935269e-003
      -4.84256446e-003 -1.01916259e-002 4.83205216e-003 6.38316106e-003
      5.54912305e-003 8.52975901e-003 8.25650617e-003 4.52789292e-003
      -1.68281887e-003 -1.23452125e-002 -3.31224315e-003 6.16626907e-003
      8.96341912e-003 1.12484703e-002 1.66411810e-002 1.15639996e-002
      1.27959633e-002 6.69299997e-003 -2.89448857e-004 -7.55000766e-003
      -6.56295754e-003 -5.95491962e-004 8.74497928e-003 1.68934762e-002
      5.69445500e-003 3.83275957e-003 -5.15976269e-003 -1.39686307e-002
      -9.19421017e-003 -7.78897386e-003 -8.08120891e-003 7.66475452e-003
      1.63715128e-002 1.47488164e-002 7.93392118e-003 -2.20644963e-003
      -1.10286474e-002 -7.67603517e-003 -4.21648659e-003 3.54604772e-003
      7.53158284e-003 1.85226165e-002 1.13714170e-002 1.43421357e-002
      6.15930697e-003 -7.78665626e-003 -1.05547719e-002 -4.09836322e-003
      7.33153801e-003 1.29262069e-002 2.82753389e-002 1.81695055e-002
      1.74440891e-002 6.48497418e-003 -1.35703785e-002 -1.70931146e-002
      -1.56814195e-002 -1.09173302e-002 8.13105726e-004 1.84416436e-002
      1.10694263e-002 2.82289158e-003 -8.23776890e-003 -1.72800701e-002
      -1.92143465e-003 -1.07115572e-002 -4.45841718e-003
      -9.91074950e-004 1.70156863e-002 9.15263500e-003 2.48143729e-003
      -1.16239837e-003 -5.46684721e-003 -1.55568598e-002
      -6.61377795e-003 5.15819620e-003 5.26542449e-003 2.92394795e-002
      1.47649609e-002 1.07343858e-002 1.36961637e-003 -1.37937311e-002
      -3.52282776e-003 -1.40795321e-003 6.85682148e-003 1.16641372e-002
      3.11280377e-002 1.44237923e-002 1.21837221e-002 5.91606926e-003
      -1.77193759e-003 -5.32342913e-003 -4.56907367e-003
      -3.76034877e-004 3.20689491e-004 3.69391521e-003 3.25942668e-003
      -3.56958294e-003 -4.45255404e-003 -7.63233099e-003 5.26567316e-003
      4.37890086e-003 1.13159986e-002 1.54920109e-002 2.11406853e-002
      6.26093429e-003 3.63910734e-003 -3.65705392e-003 3.34136537e-003
      -7.81804789e-003 -5.79192769e-003 -1.40066841e-003 6.51418138e-003
      1.27524612e-002 5.88874565e-003 -4.27211751e-004 -1.78503676e-003
      -1.06520113e-002 -8.55783653e-003 4.49700933e-003 8.49423930e-003
      1.46589270e-002 2.37744041e-002 1.14297653e-002 7.34354649e-003
      -3.61738238e-003 -2.05904455e-003 2.59785540e-003 -1.08377216e-002
      -4.69708524e-004 9.95678268e-003 1.58699844e-002 1.86895649e-003
      5.79020707e-005 -9.19491425e-003 1.75784354e-003 1.26316696e-002
      -4.12681559e-003 -2.60658190e-003 4.38383175e-003 1.87240299e-002
      8.35502706e-003 -2.49929004e-003 -5.04259311e-004 8.35677516e-003
      -1.15817059e-002 -1.33058112e-002 2.66782357e-004 9.42150131e-003
      2.15495583e-002 9.66972951e-003 5.29222889e-003 -9.32576600e-003
      -4.03260579e-003 -7.71004055e-003 -1.09819425e-002
      -3.62226740e-003 2.58497498e-003 2.14619432e-002 9.74095706e-003
      3.10994755e-003 -4.71488136e-004 5.08699520e-003 1.14695439e-002
      -3.79492808e-003 -7.29532260e-003 -4.33190074e-003 7.47448066e-003
      2.75811506e-003 -6.84868125e-003 -9.99089144e-003 1.04424907e-002
      1.43629219e-002 6.43599138e-004 -1.30291295e-003 5.80186024e-003
      1.41620981e-002 6.47394825e-003 1.18428725e-003 2.33848719e-003
      1.73829552e-002 -4.94126370e-003 -9.07517783e-003 -1.02825761e-002
      -4.75840596e-003 7.20582437e-003 1.38799706e-003 -6.45196717e-003
      -1.02389185e-002 2.86140176e-003 9.77319782e-004 -3.99704883e-003
      -3.50025622e-003 -5.30065619e-004 1.04365246e-002 7.47545529e-003
      -2.93160183e-003 -9.04089212e-003 4.76072170e-003 1.51869711e-002
      -3.14953085e-003 -7.47860922e-003 4.24700044e-003 1.27955014e-002
      5.92638087e-003 6.58289180e-004 -1.43845414e-003 1.69036705e-002
      1.19499452e-002 -5.10004675e-003 -1.23983426e-002 -4.27458109e-003
      1.42684886e-002 9.85837728e-003 3.31508624e-003 -7.19292555e-004
      1.83111597e-002 -1.86748744e-003 -1.18480641e-002 -1.19047407e-002
      -3.16597498e-003 9.38501209e-003 7.17019010e-003 4.51733940e-004
      -3.92324058e-003 4.73856740e-003 -3.02948500e-003 -1.34543981e-002
      -1.78485196e-002 -4.01412742e-003 1.36534683e-002 1.02098938e-002
      4.90375608e-003 4.95864032e-003 3.50193912e-003 1.58674140e-002
      -1.27721336e-002 -1.50570320e-002 -6.51569152e-003 1.57070830e-002
      1.28391366e-002 8.22557043e-003 3.62886861e-003 2.10849885e-002
      -5.04894415e-004 -2.67337598e-002 -1.93792228e-002
      -9.53247584e-003 9.25681181e-003 6.59451541e-003 1.25298474e-003
      4.84626740e-003 1.08918762e-002 -1.82635104e-003 -2.37178430e-002
      -2.17780638e-002 -5.41702192e-003 2.29713228e-002 1.15655018e-002
      7.55515136e-003 1.94524857e-003 8.82203877e-003 -9.65081528e-003
      -2.79348511e-002 -2.55362671e-002 -9.09734517e-003 1.13231065e-002
      5.96361421e-003 4.15122369e-003 -5.05014468e-005 3.84853990e-003
      5.63647132e-004 -3.41371144e-003 -9.67136025e-003 -6.02444727e-003
      -3.52775399e-003 -1.30175678e-002 -8.63937195e-003
      -9.73126851e-003 1.11669092e-003 -1.10165973e-003 -3.22427158e-003
      -9.20351688e-003 -6.38217339e-003 -4.12633130e-003
      -1.16037177e-002 -8.34372360e-003 -7.88997952e-003
      -2.79803266e-004 1.18429214e-002 -1.88731740e-003 -7.75807071e-003
      -4.81190073e-004 5.60902571e-003 -1.30109116e-002 -1.34251881e-002
      -6.13358943e-003 8.27937666e-003 9.03125387e-003 -8.42947746e-004
      -7.29361176e-003 3.92984739e-003 1.02577880e-002 -9.97752324e-003
      -6.75126398e-003 -5.13241999e-003 -2.13275547e-003 3.70770314e-004
      -9.89916455e-003 -9.14024934e-003 -5.76444389e-003 5.40062669e-004
      -6.94300933e-003 -4.02061408e-003 -8.32901057e-003 8.76166741e-004
      -5.08460263e-003 -1.71364453e-002 -7.26713985e-003
      -5.75823756e-003 7.07846993e-005 -1.09892748e-002 -1.57310069e-002
      -2.30084211e-002 -7.21736206e-003 1.16682071e-002 -4.78482200e-003
      -4.75409441e-003 -1.06774049e-003 7.57863559e-003 -6.34162361e-003
      -5.98307978e-003 -1.40555864e-002 3.71463667e-003 4.79497667e-003
      -9.70618892e-003 -7.90823891e-004 -1.04075845e-003 5.34274057e-003
      -5.46525139e-003 -1.71665009e-002 -2.53446940e-002
      -1.81618170e-003 7.00648816e-004 -1.28840292e-002 -3.53104924e-003
      3.48806172e-003 5.37320040e-003 -1.22427586e-002 -1.60764735e-002
      -2.71195080e-002 -6.77325204e-003 -1.53466384e-003
      -1.24170082e-002 -6.83173630e-003 -5.11960126e-003 4.66131512e-003
      -1.25057008e-002 -1.69194881e-002 -2.79526245e-002
      -5.40408632e-003 1.07493168e-002 -5.34751033e-003 3.54496995e-003
      4.10083821e-003 1.14245405e-002 -4.02149837e-003 -1.36143323e-002
      -2.15380546e-002 -1.87236248e-004 1.49224643e-002 6.91016467e-005
      -7.26285100e-004 -1.39042246e-003 1.57771651e-002 -4.08663135e-003
      -1.12417685e-002 -2.21613999e-002 6.44171750e-003 4.02778247e-003
      -5.90002909e-003 -7.30351824e-003 -6.07950147e-003
      -2.88791978e-003 -1.40962508e-002 -1.41083775e-002
      -1.76123735e-002 -2.69691693e-003 2.89385300e-003 -7.37610273e-003
      -1.08398646e-002 -7.42991827e-003 -1.02234129e-002
      -1.56847145e-002 -1.61713306e-002 -1.23491073e-002 3.65033653e-003
      1.86104830e-002 3.26827168e-003 -3.67041584e-003 -3.65553377e-003
      5.27717406e-003 -4.76277201e-003 -7.50393793e-003 -1.16026243e-002
      1.62628312e-002 1.89431999e-002 -3.68492375e-003 -6.19387545e-004
      -1.08176644e-003 -5.17958449e-003 -1.01207606e-002
      -9.27604362e-003 -4.81533119e-003 1.36313159e-002 -3.60302534e-003
      -4.90641221e-003 -3.38527048e-003 -2.69670854e-003
      -2.65511801e-003 -8.79114401e-003 -1.06589934e-002
      -1.86306592e-002 -4.69769817e-003 -7.68177351e-003
      -7.61682214e-003 1.38621172e-003 2.45977263e-003 3.33333830e-003
      -1.85032457e-003 -1.48365535e-002 -2.73527466e-002
      -9.20617580e-003 1.60346366e-002 1.24862854e-004 4.98794392e-003
      4.45467280e-003 3.16014444e-003 -6.51345262e-003 -5.33143478e-003
      -4.06972878e-003 1.33459987e-002 1.35387070e-002 8.80449172e-003
      1.39538767e-002 1.21688582e-002 1.15684392e-002 2.16780906e-003
      -2.90254876e-003 -5.45659428e-003 9.89235193e-003 -1.01180486e-002
      -6.41587074e-004 5.38322190e-003 8.95026792e-003 8.94508697e-003
      4.62530088e-003 -6.70904294e-003 -2.61668973e-002 -1.83244292e-002
      -6.70143683e-003 -6.89192303e-003 2.48582265e-003 2.54473742e-003
      4.26637242e-003 2.30362918e-003 -8.08318611e-003 -2.15721447e-002
      -1.32574970e-002 1.82209853e-002 1.18296538e-002 1.65887792e-002
      1.52248079e-002 1.27966972e-002 8.27119313e-003 4.91518620e-003
      -4.39786556e-004 1.65742878e-002 8.72646831e-003 8.23199283e-003
      1.31934443e-002 9.21600498e-003 7.97208957e-003 4.12298366e-003
      5.37910406e-003 3.28357302e-004 1.04679437e-002 -1.00985700e-002
      -1.40793305e-002 -4.00419673e-003 -2.89360993e-003 7.10738590e-003
      1.55096478e-003 -3.67782917e-003 -1.34770684e-002 -9.22963582e-003
      -9.35685635e-003 -1.07069639e-002 1.03360857e-003 4.94602136e-003
      8.47242773e-003 6.04674360e-003 4.66304738e-003 -7.02412752e-003
      -1.08275469e-002 7.57552637e-003 4.00736090e-003 3.84690217e-003
      5.98269794e-003 1.66662950e-002 3.62333539e-003 -9.52931528e-004
      8.07958830e-004 1.67062301e-002 -6.77161850e-004 3.94890690e-003
      8.46226607e-003 1.56016825e-002 2.54617706e-002 1.09503064e-002
      9.18516424e-003 -6.27801346e-005 1.00475866e-002 -1.43152857e-002
      -2.60012737e-003 2.11666944e-003 5.98081667e-003 7.31404684e-003
      9.73226735e-004 1.03051297e-003 -8.42296053e-003 -1.59556866e-002
      -9.60644521e-003 -2.28903280e-003 -1.41591323e-003 5.98150818e-003
      1.32032596e-002 6.67854538e-003 4.81883530e-003 -3.45828338e-003
      -8.83136131e-003 3.98553349e-003 -1.20051426e-003 5.84388804e-003
      1.18033476e-002 1.82321463e-002 7.00147310e-003 1.13566443e-002
      4.20924043e-003 1.06580844e-002 -2.45084055e-003 -2.64479150e-003
      4.56776656e-003 1.24293650e-002 2.16987804e-002 1.70923676e-002
      9.04486235e-003 2.72195367e-003 6.29741699e-003 -1.00261662e-002
      -1.34432642e-002 -1.43979245e-003 6.18915597e-004 1.43939536e-002
      7.82301091e-003 4.21902211e-003 -4.58215084e-003 -1.10640386e-002
      -1.08593926e-002 -1.46448109e-002 1.81778043e-003 8.53529479e-003
      2.44624745e-002 9.07697994e-003 6.48336625e-003 -1.70330168e-003
      -1.43765565e-002 -4.61899536e-003 -6.62031397e-003 3.72559391e-003
      1.02203535e-002 2.18036566e-002 1.74720734e-002 4.14898852e-003
      -1.24254753e-003 4.28463332e-003 -4.60214727e-003 -2.15716846e-003
      7.71361077e-003 1.48556316e-002 2.30801497e-002 1.14809703e-002
      2.91597145e-003 -1.59232283e-003 3.49355536e-003 -1.66054480e-002
      -1.58905089e-002 -3.70932481e-004 1.24161213e-003 2.64010802e-002
      4.38144803e-003 -5.24753588e-004 -5.58438851e-003 -1.46185989e-002
      -1.04100294e-002 -1.76349003e-002 -2.72214809e-003 4.71423520e-003
      2.76191644e-002 3.25593841e-003 4.01416514e-003 1.21812576e-004
      -1.30479466e-002 -3.64016742e-003 1.30585441e-003 1.15482565e-002
      1.03530446e-002 1.91926956e-002 8.54145736e-003 3.34708067e-003
      -4.79499251e-003 4.42051678e-004 1.75815634e-003 1.28557766e-003
      5.22809522e-003 1.19577758e-002 2.27558780e-002 9.73179191e-003
      1.12511599e-002 1.36705469e-002 6.41871989e-003 -9.24510602e-003
      -1.60925929e-002 -8.89745541e-003 9.66656837e-004 1.15738725e-002
      -5.27313561e-004 2.76417035e-004 -3.91647080e-003 -1.26916971e-002
      -8.44546501e-003 -8.96398630e-003 -8.18933081e-003 3.83374258e-003
      2.42255982e-002 9.64816194e-003 6.42086612e-003 -7.42590707e-003
      -5.92181366e-003 3.18919634e-003 1.51714345e-003 -2.90315412e-003
      1.49973191e-003 1.22943614e-002 8.10871925e-003 9.02013481e-003
      1.04318857e-002 4.98851808e-003 7.91122951e-003 9.47625842e-003
      -9.26267676e-005 7.11427070e-003 2.60623135e-002 1.40959416e-002
      1.29568400e-002 5.44848852e-003 8.89629312e-003 -1.19962301e-002
      -1.44280279e-002 -6.56261900e-003 2.19891616e-003 2.32159402e-002
      1.34346755e-002 6.75648171e-003 -1.16409920e-002 -1.40350703e-002
      -1.66760515e-002 -1.50284367e-002 -5.60322637e-003
      -3.00042983e-003 2.09338199e-002 1.43039711e-002 6.84144953e-003
      -3.58467526e-003 -1.27445608e-002 4.84217517e-003 5.39840292e-003
      -2.65217060e-003 1.54157705e-003 2.07722187e-002 1.20648267e-002
      9.95038636e-003 9.11441573e-004 1.07227848e-003 2.83003598e-003
      3.66985705e-003 1.07552926e-003 1.52958941e-003 2.16954499e-002
      1.34475529e-002 1.17890704e-002 4.19616047e-003 -6.79287780e-003
      -6.19021291e-003 -7.95075484e-003 -3.16700921e-003
      -3.12210782e-003 1.53455669e-002 1.06521882e-002 2.25334358e-003
      -6.74859947e-003 -5.08467760e-003 -2.73845368e-003
      -7.70392967e-003 -5.03311399e-004 3.46882874e-003 1.52071938e-002
      9.75972600e-003 -4.08810889e-003 -1.07830828e-002 -4.35516122e-004
      4.81024105e-003 -3.36454250e-003 -3.42136784e-003 3.86054744e-003
      1.81668047e-002 1.30470674e-002 4.73021949e-003 -5.21085691e-003
      -3.19257053e-003 4.20775590e-003 -1.72647147e-003 5.59622858e-005
      6.98990934e-003 1.87387969e-002 1.27830124e-002 -1.68989165e-004
      -6.45682868e-003 1.70024301e-004 -4.01893136e-004 -1.13227041e-002
      -6.44338038e-003 -1.17225118e-003 1.12616932e-002 6.98868884e-003
      -1.12454791e-003 -1.54651515e-003 9.34322085e-003 -6.01677969e-003
      -1.43810408e-002 -1.07620461e-002 -2.52148020e-004 1.50100607e-002
      1.04993861e-002 5.14451414e-003 6.28874544e-003 3.47548234e-003
      -1.76164659e-003 -5.59812272e-003 -9.42289305e-004
      -1.24201388e-003 1.63367428e-002 1.15272412e-002 5.07417740e-003
      2.65156559e-004 4.53649834e-003 -2.69487471e-004 -1.02272835e-002
      -4.71656909e-003 -1.04246428e-004 1.41125135e-002 1.26891229e-002
      9.04894713e-003 4.14687162e-003 6.27823407e-003 -6.05376530e-003
      -1.51532451e-002 -1.15328059e-002 2.23276555e-003 1.96963735e-002
      1.46183521e-002 5.37001016e-003 4.30396618e-003 2.07082997e-003
      -1.23766717e-002 -1.57009270e-002 -8.74328706e-003 4.35450202e-004
      1.19712008e-002 9.39507224e-003 5.85887162e-003 -1.02019939e-003
      -2.23048404e-003 2.00190974e-004 -1.12071969e-002 -2.85122893e-003
      7.55515695e-003 1.53037123e-002 1.33537035e-002 3.43166385e-003
      6.48358418e-003 1.17288507e-003 -2.85339355e-003 -1.81705840e-002
      -1.57052570e-003 8.49219318e-003 1.81455631e-002 1.74757782e-002
      6.99678622e-003 -6.28271233e-003 -4.32990538e-003 5.76592796e-003
      -1.16813993e-002 -9.40916874e-003 -6.38834154e-003 7.44186202e-003
      -7.03432085e-003 -1.71612371e-002 -1.26486355e-002 1.03861466e-002
      4.81770228e-004 -1.24352463e-002 -7.69157195e-003 -2.04145419e-003
      7.35106645e-003 -9.22761858e-003 -1.15253888e-002 -8.94473121e-003
      -4.80234739e-004 -4.67489328e-004 -1.06965490e-002
      -3.84854292e-003 -1.53471759e-004 3.82427732e-003 -1.62415241e-003
      -9.82653536e-003 -6.89066155e-003 -2.40038708e-003
      -4.69517289e-003 -1.02042295e-002 -3.71111045e-003
      -5.50888525e-003 1.81717775e-003 -5.65563701e-003 -1.20372856e-002
      -1.07680131e-002 -1.80239335e-003 6.44429121e-003 -1.19025353e-002
      -4.55235690e-003 -2.38148728e-003 3.98394011e-004 -9.27327573e-003
      -9.92062967e-003 -1.07506132e-002 3.53237451e-003 9.50539950e-003
      -1.41092939e-002 -3.54038435e-003 -5.40517829e-003
      -2.95071653e-003 -9.73541196e-003 -1.50061967e-002
      -1.98275018e-002 8.23328737e-003 6.58060308e-004 -1.16492230e-002
      -9.73572955e-003 -4.73484583e-003 -2.98745697e-003
      -1.02230804e-002 -1.54714929e-002 -1.04020881e-002 9.40243434e-003
      4.09236969e-003 -1.89754292e-002 -1.54539263e-002 -5.06759947e-003
      -5.47947595e-003 -1.23190228e-002 -1.71728805e-002
      -1.21548763e-002 1.26270875e-002 3.64108896e-003 -1.38234571e-002
      -4.63223830e-003 -5.69593906e-003 -1.19221036e-003
      -7.28471996e-003 -1.66471098e-002 -2.34011821e-002 3.83568346e-003
      1.10004861e-002 -5.66888042e-003 -5.05925063e-003 -3.34138772e-003
      9.91800521e-003 -5.39101381e-003 -1.86852720e-002 -2.27522496e-002
      1.55403360e-003 4.13100654e-003 -2.17013955e-002 -1.59269106e-002
      -1.42558618e-002 -1.06101660e-002 -1.01959473e-002
      -1.00685228e-002 -1.51616409e-002 5.17119700e-003 1.32310782e-002
      -9.98653658e-003 -9.10236593e-003 -8.44118744e-003 1.72424840e-003
      -3.25295399e-003 -1.07416762e-002 -1.66382547e-002 4.05687559e-003
      1.42647317e-002 5.21802402e-004 -3.31187854e-003 -4.41169273e-003
      2.64014327e-003 -5.18922321e-003 -1.67411715e-002 -2.23417170e-002
      1.10315299e-002 1.39545491e-002 -1.01947533e-002 -4.22464916e-003
      -7.26601575e-003 -2.68637575e-003 -1.01292301e-002
      -1.51086701e-002 -1.24629056e-002 1.24799423e-002 1.28025347e-002
      -5.74122136e-003 -4.75851865e-003 -6.84696902e-003
      -4.83092153e-003 -4.05482948e-003 -1.21041313e-002
      -1.79963000e-002 2.91427923e-003 1.33645916e-002 -4.62727435e-003
      -4.34731599e-003 -4.64742910e-003 -5.52452961e-003
      -9.84732900e-003 -1.64204426e-002 -1.65959280e-002 4.62136976e-003
      4.11607698e-003 -9.25866235e-003 -2.09062104e-003 -3.07750539e-003
      -2.67520593e-003 -8.94011836e-003 -9.77919530e-003
      -1.23978956e-002 4.90757031e-003 3.27081443e-003 -1.82522915e-003
      5.04433503e-003 3.51890398e-004 3.50785698e-003 -7.66881136e-003
      -8.42595566e-003 -9.92322527e-003 5.67215588e-003 8.97522643e-003
      -6.11035340e-003 -3.89358401e-003 -3.37910606e-003
      -1.28735171e-003 -2.06614356e-003 -6.54959679e-003
      -1.14222318e-002 6.88181352e-003 9.50657390e-003 -2.64317752e-003
      8.97155842e-004 -3.23431654e-004 6.11760560e-003 1.96884433e-003
      -5.87943476e-003 -6.89933077e-003 1.17633995e-002 3.13939294e-003
      -3.99322202e-003 1.00060301e-002 3.68467323e-003 2.11175895e-004
      -3.74680734e-004 -4.85825911e-003 -7.77446572e-003 8.83325096e-003
      2.93173431e-003 -1.02904486e-002 -1.51602156e-003 -1.98733853e-003
      -2.02134252e-003 -2.60589365e-003 -7.24108564e-003
      -8.71445425e-003 2.54352158e-003 1.20376516e-002 -2.66750949e-003
      2.81111058e-003 -1.99797796e-003 8.38117115e-003 1.72806927e-003
      -3.09468550e-003 -8.31371918e-003 1.12943836e-002 2.80095410e-004
      -1.53585048e-002 -9.75593831e-003 -8.27667583e-003 3.83719662e-003
      -2.67282315e-003 -6.98165130e-003 -6.24008430e-003 2.58156518e-003
      1.10504695e-003 -1.44006973e-002 -1.05438912e-002 -1.52676832e-003
      4.89964429e-003 -2.00456195e-003 -7.25934654e-003 -1.39402142e-002
      3.00037395e-003 -2.01379808e-004 -1.18407020e-002 -6.42128848e-003
      1.00676361e-002 1.66288596e-002 6.58424152e-003 -2.33592960e-004
      -1.83417592e-002 4.86796396e-003 -1.68449373e-003 -1.61669794e-002
      -1.00768879e-002 -1.92128832e-003 6.06467575e-003 -3.17671127e-003
      -6.30780868e-003 -1.30416658e-002 3.14326747e-003 -1.42105215e-003
      -9.75779817e-003 -4.29549301e-003 8.22230242e-003 1.11263115e-002
      8.13232386e-004 -1.48415589e-003 -1.46559570e-002 4.61086305e-003
      -3.87789449e-004 -1.48047246e-002 -6.72986172e-003 5.52424369e-003
      1.21139567e-002 3.50060989e-003 -7.80053379e-004 -1.40958698e-002
      6.20246457e-004 -5.66806877e-003 -1.78458355e-002 -1.15492735e-002
      1.16320048e-003 1.06090819e-002 3.81380762e-003 1.87754794e-003
      -6.17810525e-003 3.38560698e-004 2.74503697e-003 -8.70013889e-003
      -7.80287385e-003 -1.09016057e-003 8.20516516e-003 -2.24891957e-003
      -7.45016895e-003 -1.62570439e-002 -6.70330483e-004 3.95203708e-003
      -9.89047531e-003 -7.99955055e-003 -4.08490747e-003 7.27729499e-003
      -3.55289364e-003 -8.36877618e-003 -1.02524878e-002 3.22069181e-003
      -7.42659252e-003 -1.69406105e-002 -1.16359144e-002 1.50467688e-003
      1.08608278e-002 4.83235344e-003 3.48643027e-003 1.52295723e-003
      4.23476449e-005 -1.85360317e-003 -9.87244118e-003 -8.57529230e-003
      1.08018133e-003 9.74159688e-003 -2.16601044e-003 -5.95233729e-003
      1.46356819e-004 1.28454471e-004 3.43227084e-003 -1.04658483e-002
      -7.53694866e-003 -6.64964551e-004 6.21961849e-003 -5.59375342e-003
      -2.79835565e-003 -2.87152012e-003 5.66072622e-003 6.94535731e-004
      -4.71072551e-003 -2.18546833e-003 -1.64895644e-003 4.42701066e-003
      -5.88170113e-003 -8.11106618e-003 -2.74569640e-004 8.92251730e-003
      -1.97282201e-003 -4.17706603e-003 -8.61740205e-004 2.72320816e-003
      1.97386425e-002 -4.76165768e-003 -4.61274246e-003 -5.29414322e-003
      -6.04108442e-004 1.16373447e-003 -1.30559476e-002 -7.49832066e-003
      -4.28777348e-005 1.61534920e-002 3.63577227e-003 2.42653862e-003
      1.70958624e-003 1.17499731e-003 1.32921399e-004 -5.01330197e-003
      -4.04409785e-003 -4.25505172e-003 5.33836614e-003 -6.08716300e-003
      -7.51864770e-003 4.63399617e-003 6.52341964e-003 3.47011606e-003
      -6.89147087e-003 -8.86919070e-003 -6.26005931e-003 6.94117369e-003
      7.09758140e-004 -6.09996077e-003 -6.38200494e-004 3.28971818e-003
      -1.23822689e-003 -1.31221563e-002 -1.37748746e-002
      -8.10541399e-003 5.27848210e-003 1.59883741e-004 1.09512068e-003
      -8.85965361e-004 -1.63376890e-003 2.37580459e-003 -6.10365951e-003
      -9.42728855e-003 -2.82732211e-003 9.65503324e-003 2.30578310e-003
      -5.14948508e-004 -7.95813743e-003 3.49252229e-003 7.64676603e-003
      -5.71944565e-003 -6.66959258e-003 -6.22704672e-003
      -1.25974964e-003 8.39197251e-004 -5.56333736e-003 -1.28967443e-003
      2.00877269e-003 1.50520736e-002 -3.28108697e-004 -1.85762101e-003
      -3.20091378e-004 -2.72821379e-003 -2.07304838e-003
      -9.90979746e-003 -6.26414921e-003 2.17363075e-003 5.68910642e-003
      5.41249938e-005 -4.14063269e-003 -1.53023668e-003 8.10642727e-003
      1.16388581e-003 -2.62793642e-003 -6.16786908e-003 2.97881686e-003
      2.91993632e-003 -4.27159993e-003 -6.85366290e-003 -1.28661084e-003
      8.90780892e-003 2.04191729e-003 -2.90169404e-003 -2.24194140e-003
      4.91725700e-003 1.48303956e-002 2.06494727e-003 -4.38411254e-003
      -3.87850776e-003 -6.34832028e-003 -6.71766093e-003
      -9.05602146e-003 -4.86322073e-003 6.46295073e-003 6.85011549e-003
      5.35860774e-004 -9.96493921e-003 -7.23586464e-003 -4.06037725e-004
      -5.65500325e-003 -1.82912126e-003 -5.86293718e-005 6.78063324e-003
      5.43336757e-003 -3.23065929e-003 -8.13871913e-004 2.05667317e-003
      1.10339364e-002 3.57332197e-003 -6.10081712e-003 -1.08004129e-002
      5.01734251e-003 9.96068213e-003 -4.47743631e-004 7.82059331e-004
      6.39074156e-003 1.46496948e-002 5.56844380e-003 -8.37212801e-003
      -1.41655691e-002 -4.33997920e-004 1.08107906e-002 -1.40269659e-003
      -7.72840716e-003 -3.55220609e-003 6.50062598e-003 5.98404498e-004
      -6.73823815e-004 -5.17315557e-003 5.84822102e-003 1.35500003e-002
      4.79603838e-003 -4.56864620e-003 -5.67865279e-003 7.57629238e-003
      4.08705231e-003 -4.77078604e-003 -7.79020879e-003 5.31440461e-003
      5.76204387e-003 -1.17678917e-003 -2.75612780e-004 2.70543830e-003
      1.42683852e-002 1.04443626e-002 2.18653306e-003 -4.13590996e-003
      -2.23196484e-003 -4.44691069e-003 -1.12462342e-002
      -2.41286820e-003 -7.30667904e-004 4.33181366e-003 6.26908988e-003
      1.13889324e-002 -1.45740167e-003 -6.23113569e-003 1.75712239e-002
      6.83928048e-003 1.05109287e-003 -5.20870276e-003 8.78141075e-003
      2.20970460e-003 -6.80335332e-003 -6.12771744e-003 6.65244088e-003
      1.02829458e-002 4.18671593e-003 3.99545021e-003 -2.71622470e-004
      3.08014452e-003 -2.15640699e-004 -9.97420517e-004 -7.54421204e-003
      2.24114349e-003 -3.97421746e-003 -1.08097671e-002 -4.12290450e-003
      4.45513101e-003 5.55871380e-003 4.49308287e-003 5.61670866e-003
      1.49604096e-003 -5.60139306e-003 -2.88935774e-003 -1.19583523e-002
      -5.96352480e-003 3.79275880e-003 1.32245366e-002 9.47253685e-003
      2.32874695e-003 -1.08470144e-002 -8.47697351e-003 9.07841604e-003
      4.13379027e-003 5.66242775e-003 7.04892352e-003 5.85783832e-003
      4.93735587e-003 3.22767324e-003 -1.05002904e-002 1.90982805e-003
      7.38670211e-003 2.91763735e-003 2.72808888e-004 4.68158768e-003
      9.81105212e-003 5.84242027e-003 -3.01637407e-003 -1.54798990e-002
      -3.40508443e-004 3.09430016e-003 -1.56811008e-003 7.96699710e-003
      9.17783286e-003 3.86653771e-003 -6.34559244e-003 -1.13681015e-002
      -6.75319368e-003 2.56082066e-003 6.04492147e-003 -5.29043097e-003
      1.16401841e-003 1.97433808e-004 1.09895505e-002 -4.37594997e-003
      -7.41444062e-003 -9.44611989e-003 6.14444166e-003 -1.31081487e-003
      2.67305970e-003 5.35820518e-003 2.91211857e-003 -3.11240274e-003
      -1.26747927e-002 -2.23467182e-002 -2.28953958e-002
      -7.82837812e-003 8.96287151e-003 3.05286446e-003 5.85587521e-004
      -2.52365577e-003 5.57543337e-003 -9.42800008e-003 -1.95429362e-002
      -1.75555907e-002 -2.97218352e-003 7.32955523e-003 -3.36205028e-003
      -4.61685751e-003 -4.95874649e-003 1.21306500e-003 -6.97350921e-003
      -9.13180504e-003 -7.38432212e-003 7.08368653e-003 5.68737229e-003
      -8.39953218e-003 -9.86091886e-003 -1.26674864e-002
      -8.23803991e-003 -9.89826955e-003 -1.18157426e-002
      -5.09082805e-003 9.82798263e-003 1.13322958e-002 6.93446863e-003
      2.21596309e-003 -4.86877840e-003 -3.69372219e-003 -1.19498577e-002
      -1.59195438e-002 -1.01381596e-002 4.41760616e-003 9.88930184e-003
      -1.57165620e-003 -2.52012257e-003 -4.84687649e-003
      -6.12846576e-003 -9.20004677e-003 -9.81774274e-003
      -3.09717399e-003 9.95747931e-003 4.24712477e-003 -1.59038883e-002
      -8.22359510e-003 -1.02418540e-002 -1.28033143e-002
      -1.12437969e-002 -5.01656393e-003 -5.98273426e-003 4.66715917e-003
      8.09242204e-003 -5.80543559e-003 -4.99628205e-003 -4.00019391e-003
      -2.05594348e-003 -5.08215930e-003 -2.73509067e-003
      -4.54842765e-003 6.01779344e-003 9.28656105e-003 -7.21167587e-003
      -3.97873204e-003 -4.66587022e-003 -1.13600669e-002
      -1.00631043e-002 -1.11820716e-002 -6.74788374e-003 5.64858457e-003
      9.19905119e-003 -1.30822824e-003 4.42212494e-003 4.42909170e-003
      -3.51873366e-003 -7.93341175e-003 -9.63244215e-003
      -9.95528046e-003 2.98666279e-003 8.64906609e-003 -7.63457082e-003
      -6.30079256e-003 -4.20118403e-003 -7.41440384e-003
      -3.21359490e-003 -4.62111831e-003 -1.55484537e-002
      -1.36710133e-003 1.24343680e-002 -8.58881045e-003 -5.88717777e-003
      2.16846121e-003 -7.38369115e-003 -4.97845048e-003 -9.65715572e-003
      -2.15259567e-002 3.14808963e-003 5.63144311e-003 -5.64840389e-003
      -2.53586797e-003 2.31381785e-003 -2.14253887e-004 -7.10415794e-003
      -6.23475946e-003 -1.05660893e-002 1.77170921e-004 1.28271915e-002
      -4.13564546e-003 -3.47051374e-003 7.26456987e-003 -7.47492712e-004
      -5.83117316e-003 -8.00270122e-003 -1.38754239e-002 6.14307774e-003
      1.43661853e-002 -5.74979605e-003 -2.69038090e-003 -6.17288344e-004
      -2.27063661e-003 -3.05498438e-003 -7.64734298e-003
      -2.18743682e-002 2.23717955e-003 7.30093801e-003 -6.91647758e-004
      5.14706410e-003 3.07820016e-003 4.89683123e-003 1.39743392e-003
      -6.55057887e-003 -1.36853177e-002 3.03527433e-003 1.44979907e-002
      -1.22896244e-003 -3.88200348e-003 2.82399124e-003 -5.26365452e-003
      -3.37886252e-003 -6.84623187e-003 -1.94983482e-002 3.76215670e-003
      8.65704753e-003 1.15549483e-003 4.20545973e-003 4.04148083e-003
      -1.47884490e-003 -1.63360208e-003 -1.40948147e-002
      -2.22866498e-002 6.98924856e-003 9.16654430e-003 -5.62720792e-003
      -5.07393270e-004 3.88194690e-003 9.40119661e-003 -1.67161867e-003
      -7.95520935e-003 -9.93003137e-003 -2.63100490e-003
      -4.46747895e-003 -1.15576098e-002 -7.60828657e-003
      -1.43051927e-003 4.94825700e-003 -5.64989122e-003 -9.55375750e-003
      -1.15194116e-002 -8.18748493e-004 9.32175666e-003 -6.13359641e-003
      5.45042008e-003 4.02949983e-003 1.09038618e-003 -7.27839826e-004
      -1.11494781e-002 -1.24470256e-002 1.01590557e-002 1.79051131e-003
      3.74512468e-003 -1.78398134e-003 2.11195764e-003 3.11253505e-004
      -6.05285587e-003 -1.71736237e-002 -7.39737181e-003 3.15264869e-003
      -5.03718108e-003 -1.18601425e-002 -7.05298781e-003
      -1.00645074e-003 7.54372729e-003 -5.11598634e-003 -6.23948034e-003
      -1.59047134e-002 -4.38875111e-004 1.22680655e-003 -1.04352469e-002
      -3.28157679e-003 2.93567055e-003 4.05312143e-003 -3.50441434e-003
      -3.59616382e-003 -1.90360602e-002 1.25793065e-003 1.87925436e-003
      3.89678054e-003 -4.76429923e-005 -3.63366998e-004 3.85394576e-003
      -9.17287916e-003 -1.23968869e-002 -1.20664323e-002 5.54420101e-003
      8.70136730e-003 9.25353845e-004 -1.04932440e-003 5.75868937e-004
      1.26120204e-003 -7.51549145e-003 -7.31434720e-003 -1.30977733e-002
      7.60053331e-003 -3.72923608e-003 -1.11832749e-002 -5.89223485e-003
      -4.49304096e-003 -3.87271657e-003 -7.40371412e-003
      -1.41664762e-002 -1.98026542e-002 -3.46593698e-003
      -2.47810758e-003 -7.73037923e-003 -6.46678219e-003
      -4.44486830e-003 -1.20904690e-004 -5.94062312e-003
      -1.61853619e-002 -1.57513004e-002 4.57963586e-004 1.21983243e-002
      -1.72575400e-003 3.08964518e-004 -1.90689857e-003 -4.68795747e-003
      -7.26057589e-003 -8.02856963e-003 -8.52652919e-003 9.89764370e-003
      1.19260531e-002 2.76161451e-003 1.22575508e-003 -3.63923330e-003
      -1.60189043e-003 -5.42301685e-003 -5.63368341e-003
      -3.74265620e-003 7.76728243e-003 -2.14380585e-003 -8.71153362e-003
      -3.40996077e-003 1.79346185e-003 4.03164979e-003 -2.27587507e-003
      -9.44718439e-003 -1.42242387e-002 -2.61982251e-003
      -5.14805457e-003 -1.03232870e-002 -5.65349124e-003
      -3.68742854e-003 -2.36866786e-003 -6.98831072e-003
      -1.56900752e-002 -1.48940114e-002 -3.77076049e-003 1.23951053e-002
      3.81814945e-003 -3.12672491e-004 -1.59586791e-003 3.37810896e-004
      -1.38702651e-003 -2.13846215e-003 -8.99635162e-003 1.25252185e-002
      5.91349322e-003 -5.96546242e-003 -1.07353609e-002 -5.66710671e-003
      -7.68599194e-003 -1.47944503e-003 -8.74260999e-003
      -1.61491670e-002 1.11111868e-002 -7.66994711e-003 -1.06304241e-002
      -8.29559565e-003 -7.18346052e-003 -3.26232263e-003
      -2.90695461e-003 -1.23281758e-002 -1.20423324e-002
      -6.58248691e-003 1.21555035e-003 -7.43964454e-003 -3.50627117e-003
      1.11206097e-003 7.22215790e-003 -8.38685781e-004 -6.49006292e-003
      -1.11584188e-002 -1.30126637e-003 5.49511053e-003 -8.05411208e-003
      -1.13616260e-002 -8.35420378e-003 2.94924568e-004 -2.84060766e-003
      -7.59206573e-003 -1.12413019e-002 4.52136854e-003 5.22649800e-003
      -1.52046408e-003 -1.97026064e-003 -5.82996174e-004 5.47197927e-003
      6.73852721e-003 -1.68923568e-003 -3.45628057e-003 9.27528832e-003
      2.90400977e-003 -6.89060334e-003 -1.69545633e-003 -2.41067377e-003
      -4.25293529e-003 6.47251261e-004 -1.32715572e-002 -1.89562198e-002
      -7.02254241e-003 4.80191456e-003 -1.78101764e-003 2.97268457e-003
      2.94303824e-003 3.85748746e-004 2.72893580e-003 -1.12457369e-002
      -1.69742908e-002 -3.30412039e-003 -1.01821451e-003
      -1.54257996e-003 1.06626342e-003 1.52589555e-003 9.25108732e-004
      4.47322428e-003 -7.24517927e-003 -1.15200290e-002 -2.10246653e-003
      -4.35989304e-003 1.56313146e-003 3.91751761e-003 5.16312383e-003
      8.61493964e-003 8.16527754e-003 -1.61543500e-003 -1.55133540e-002
      -5.19466167e-003 7.81317148e-003 -5.17837796e-003 -3.50210792e-003
      -2.93362350e-003 -6.71062525e-003 -4.20095678e-003
      -8.32319167e-003 -1.27128316e-002 6.59972779e-004 5.27257426e-003
      -8.74337461e-003 -1.11721652e-002 -7.94875901e-003
      -5.91773819e-003 -3.76670877e-003 -2.23719934e-003
      -7.29161501e-003 6.56566117e-003 -2.32998165e-003 -2.02012737e-003
      -1.20471418e-003 -1.41728017e-003 1.33733021e-003 7.86779332e-004
      -6.70374837e-004 -9.13034100e-003 -1.57350232e-003
      -3.52164521e-003 -7.54872523e-003 -6.95455540e-003
      -7.11155124e-004 5.33550372e-003 1.51562109e-003 -1.09413790e-003
      -8.96227267e-003 5.66709833e-003 1.94080791e-003 -1.05615882e-002
      -1.41631439e-002 -3.71504645e-003 1.01584671e-002 4.50944155e-003
      7.03222584e-004 -9.52060428e-003 2.16185767e-003 4.46905848e-004
      -1.10681355e-002 -1.22639192e-002 -5.75463334e-003 5.42680454e-003
      7.30615994e-003 -3.33087752e-003 -1.47544872e-002 -1.70134328e-004
      -2.11366871e-003 -9.62910894e-003 -8.27664044e-003 5.90250967e-003
      1.89506058e-002 7.28522614e-003 4.76321159e-003 -4.22547106e-003
      2.94320239e-003 -4.50022938e-003 -1.34991584e-002 -8.53611808e-003
      3.60453967e-003 1.10956933e-002 9.36323311e-003 9.85716935e-003
      5.11745049e-004 2.40529492e-003 9.58949979e-003 -1.39690819e-003
      -4.66163270e-003 -6.34564599e-003 -2.50639906e-003
      -3.49914306e-003 -7.34759076e-003 -1.17063988e-002 4.94094519e-003
      1.32326242e-002 5.05552860e-003 1.69373082e-003 -1.09372323e-003
      -5.21208066e-003 -8.75415001e-003 -1.18061639e-002
      -1.69155635e-002 3.38407524e-004 7.37852370e-003 -7.16663990e-003
      -1.04519567e-002 -2.10016337e-003 -4.91883606e-004 3.79295880e-003
      9.86957178e-003 3.49273346e-003 7.32368091e-003 9.59136244e-003
      -5.95025998e-003 -1.00187529e-002 -1.59553427e-003
      -4.62764828e-003 -4.66371514e-003 -6.14109403e-003
      -1.40439095e-002 -4.48200619e-004 1.13505581e-002 6.31002849e-003
      5.86562557e-003 1.05329584e-002 2.38516298e-003 1.01544673e-003
      -6.26640208e-003 -1.47383381e-002 -9.65062645e-004 4.32428624e-003
      3.57619673e-003 1.48885313e-003 6.17755577e-003 9.83583368e-003
      1.12298399e-003 -5.90034807e-003 -1.48068089e-002 1.37888826e-003
      7.60576595e-003 -8.78973585e-003 -8.35677795e-003 -4.42649267e-004
      9.80922952e-004 1.51332351e-005 -2.00840109e-003 -1.71611905e-002
      -5.12496568e-003 -5.21672843e-003 -1.17352838e-002
      -1.04025798e-002 -2.29384378e-003 2.08703429e-003 1.36991439e-003
      -4.81966231e-003 -1.57542340e-002 -7.13827601e-003</_></support_vectors>
  <decision_functions>
    <_>
      <sv_count>1</sv_count>
      <rho>1.4696653327843978e-001</rho>
      <alpha>
        1.</alpha>
      <index>
        0</index></_></decision_functions></my_svm>
</opencv_storage>
