<?xml version="1.0"?>
<opencv_storage>
<my_svm type_id="opencv-ml-svm">
  <svm_type>C_SVC</svm_type>
  <kernel><type>LINEAR</type></kernel>
  <C>1.0000000000000000e-002</C>
  <term_criteria><epsilon>1.1920928955078125e-007</epsilon>
    <iterations>1000</iterations></term_criteria>
  <var_all>3780</var_all>
  <var_count>3780</var_count>
  <class_count>2</class_count>
  <class_labels type_id="opencv-matrix">
    <rows>1</rows>
    <cols>2</cols>
    <dt>i</dt>
    <data>
      0 1</data></class_labels>
  <sv_total>1</sv_total>
  <support_vectors>
    <_>
      -2.10781954e-002 -1.15026664e-002 1.58691849e-003 3.28931329e-003
      -8.26555677e-003 -3.53068957e-004 3.76543519e-003 -6.75429357e-003
      -2.63696443e-002 -3.02327070e-002 -5.00548631e-003 8.94254597e-004
      6.61060447e-004 1.85700250e-003 9.19505302e-003 5.74559951e-003
      -1.40882574e-003 -2.44623739e-002 -4.15064860e-003
      -7.32912123e-003 8.88366532e-003 7.48776551e-003 6.69339811e-003
      3.82646546e-003 3.32046649e-003 -4.17743810e-003 -5.76694077e-003
      -8.58089793e-003 -2.89010094e-003 3.97527032e-003 2.57050782e-003
      1.14443004e-002 4.02178243e-003 1.83579430e-003 1.36469927e-004
      -9.67134908e-003 -2.80578882e-002 -8.01382959e-003
      -8.98987404e-004 -2.84559745e-003 2.14197952e-003 1.57694798e-002
      1.08979810e-002 2.08278745e-003 -2.37705968e-002 -2.31065638e-002
      -3.07428418e-003 8.95808171e-003 2.92797200e-003 1.03978394e-002
      1.40152257e-002 1.32410005e-002 -6.47883303e-003 -2.60399766e-002
      -1.24073597e-002 -9.24015138e-003 -3.00875586e-003
      -3.49709392e-003 1.69838069e-003 6.18702546e-003 4.81127901e-003
      3.04192700e-003 -5.27367927e-003 -2.04633106e-003 -2.17731111e-002
      -5.22972737e-003 -9.15124733e-003 5.21406392e-003 1.44822914e-002
      9.05725639e-003 -1.80963834e-004 -2.06964230e-003 -1.10499086e-002
      4.20809956e-004 4.47326899e-003 -4.45619226e-003 -1.91211095e-003
      3.27439629e-003 2.53919745e-003 -6.88188570e-003 -2.17798781e-002
      -9.25407093e-003 3.55418609e-003 3.35698389e-003 3.22272535e-003
      -1.48837618e-003 7.09002092e-003 7.59590138e-003 -1.86053663e-003
      -1.25477174e-002 -8.12824629e-003 -1.66513901e-002 6.06578263e-003
      1.45914019e-004 4.63024341e-003 7.28148548e-003 7.78251793e-003
      -1.89421105e-003 -3.45432269e-003 -8.28554761e-003
      -3.82396742e-003 1.31943012e-002 1.07942550e-002 1.85031362e-003
      4.82298899e-003 2.95747165e-003 -8.46823025e-003 -4.66065831e-004
      -5.68566145e-003 5.75551391e-003 6.00161729e-004 -3.44997295e-003
      -1.08952681e-002 3.11840209e-003 4.29892447e-003 -3.69921280e-003
      -3.50901135e-003 -5.09849750e-003 7.07797287e-003 8.22974276e-003
      7.33735971e-003 -5.40308468e-003 -5.89768679e-005 2.59443489e-003
      -3.17852857e-004 8.06063181e-004 -8.56051408e-003 -2.75028497e-003
      8.21964443e-003 2.74248142e-003 -4.34831111e-003 1.22550607e-003
      -3.66438017e-003 -1.16175145e-003 -7.18158088e-004
      -1.96780008e-003 -3.35920695e-003 1.15654711e-002 4.94277198e-003
      4.09373920e-003 3.73896072e-003 1.34942611e-003 2.12952448e-003
      -3.73354834e-003 -1.64157748e-002 -5.33636007e-003 2.74224184e-003
      6.90505002e-003 1.77583506e-003 -2.43618526e-003 -3.52072529e-003
      -1.13811651e-002 -1.13527346e-002 -1.02635298e-003
      -3.88937630e-003 3.91318463e-003 9.62714665e-003 1.51546085e-002
      8.94965045e-003 1.78488065e-003 -9.44640767e-003 -8.82298779e-003
      -1.31915333e-002 -1.28127565e-003 1.02606546e-002 8.83677881e-003
      3.54679301e-003 7.99659523e-004 -2.68121297e-003 -1.69592835e-002
      -1.63862407e-002 -4.00056504e-003 1.65790208e-002 1.99883599e-002
      1.65501293e-002 1.07309846e-002 1.27160605e-002 -3.40960594e-003
      -1.61655154e-002 -1.31617561e-002 -5.08547341e-003
      -4.48199827e-003 -1.99085590e-003 7.86504708e-003 6.02440583e-003
      3.69059504e-003 -4.65019559e-003 -1.33875934e-002 -1.57570932e-002
      -6.04908029e-003 -3.14819184e-003 9.27622337e-003 1.41915651e-002
      -1.66884172e-004 9.71397292e-003 2.84778327e-003 -1.21718394e-002
      -1.56581290e-002 6.07893344e-005 1.10092359e-002 2.79784901e-003
      8.50902312e-003 1.56859611e-003 5.61409444e-003 -1.13005554e-002
      -2.05710027e-002 -1.08930385e-002 2.84015620e-003 -1.05440372e-003
      1.18957609e-002 9.16293357e-003 -4.42882534e-003 -3.80467880e-003
      -8.37735552e-003 -1.89475771e-002 -5.50270919e-003
      -4.32359846e-003 8.41588597e-004 1.44689996e-002 9.57937632e-003
      1.09114358e-003 9.76225547e-003 7.02036032e-003 -9.75738000e-003
      -1.49231041e-002 7.66857713e-003 2.50237016e-003 -4.61310905e-004
      -6.08489150e-003 -6.71193562e-003 6.36448339e-003 8.70988891e-003
      -2.22732150e-003 -5.10019064e-003 3.51000088e-003 7.31671229e-004
      1.43062826e-002 8.24870728e-003 -3.72566003e-003 -9.68683884e-003
      -6.73373183e-003 -1.28888441e-002 -4.35097422e-003 5.08275628e-003
      -5.45568438e-003 -3.09400144e-003 -1.07568670e-002
      -1.32295247e-002 -1.15011167e-002 -5.74944681e-003
      -1.01581682e-002 2.39832792e-003 1.47292325e-002 -5.97980060e-003
      -1.18567580e-002 -6.82419585e-003 3.44557455e-004 4.34828503e-003
      6.48669573e-003 -2.69041304e-003 1.21958554e-002 2.03590635e-002
      -5.06884186e-003 -1.01042371e-002 -1.95660489e-003
      -5.55365332e-005 -1.95969385e-003 1.26874671e-004 -1.14415621e-003
      1.63666941e-002 5.18329069e-003 -1.08815795e-002 -1.65277887e-002
      -1.70142055e-002 -8.34774598e-003 -5.93790039e-003
      -5.81075018e-003 -1.06327608e-002 1.17747262e-002 8.10140371e-003
      -1.02225952e-002 -2.15741582e-002 -1.29763531e-002
      -6.57097436e-003 -7.55410874e-003 -7.12242676e-003
      -9.68895946e-003 1.28551880e-002 2.19701156e-002 8.59568547e-003
      2.27273302e-003 8.46306444e-004 -2.40321620e-003 -1.61840778e-003
      -3.02821142e-003 -1.84988487e-003 1.07289674e-002 1.82903446e-002
      9.87104792e-003 1.16196461e-002 3.74404743e-004 7.35785696e-004
      -1.25615043e-003 -4.13539400e-003 -5.20908553e-003 1.08996956e-002
      -7.26145458e-007 -5.01228590e-003 -1.09634930e-002
      -5.18161431e-003 -9.42837168e-003 -1.13445716e-002
      -5.39153535e-003 -5.39217424e-003 1.05718067e-002 -1.84128119e-003
      1.10890460e-003 7.70445727e-003 2.68355105e-003 -3.72814806e-003
      -1.12202112e-002 -1.42801064e-003 -8.75371043e-003
      -8.23409995e-004 4.73014545e-003 1.94224773e-003 2.33923993e-003
      -7.35158799e-003 -6.92512607e-003 -2.25355802e-003
      -3.52635537e-003 -2.47042556e-003 6.27236068e-003 1.31914588e-002
      -2.70708255e-003 -4.63544944e-004 1.69827056e-003 -3.86148179e-003
      3.05496389e-003 4.84926364e-004 6.44151354e-003 1.60391219e-002
      -8.50738899e-004 -4.35774028e-003 2.33141612e-003 -4.41330997e-003
      -1.27055636e-002 -1.50956661e-002 -7.84620922e-003
      -1.49779767e-002 -1.24827372e-002 6.59674522e-004 -5.53644402e-003
      -4.51572705e-003 -4.09963029e-003 -4.82458761e-003
      -2.56491883e-004 2.02897284e-003 -6.88198395e-003 -1.07391812e-002
      1.09196147e-002 -4.01008379e-004 1.00641605e-003 7.05773768e-004
      -8.38971417e-003 -2.92068976e-003 7.67193633e-005 4.77202376e-003
      1.40397483e-002 8.00077058e-003 -1.73145020e-003 4.44828416e-004
      -6.67131646e-003 -1.47645352e-002 -7.88962469e-003
      -2.29477743e-003 1.45657901e-002 1.35044865e-002 -6.62634848e-003
      7.51902699e-005 -3.74537217e-003 -7.06086680e-003 -8.89736786e-003
      4.91902698e-004 1.49660616e-003 -1.13998260e-003 -3.06390948e-003
      -7.76448566e-003 -4.94990451e-003 -3.52072786e-003
      -8.84648785e-003 -1.49928117e-002 -3.69359646e-003
      -2.10972037e-003 -1.90339936e-003 3.59845976e-003 1.07412031e-002
      -2.37898948e-003 -1.74811773e-003 -6.88779587e-003
      -1.59954559e-002 -5.66734979e-003 1.66934018e-003 1.85809992e-002
      1.93447117e-002 1.40635977e-002 6.55498530e-004 -5.55951986e-003
      -9.68247745e-003 -1.29492106e-002 -8.55165534e-003
      -1.61167723e-003 1.44604119e-002 1.79719087e-002 -6.54093409e-003
      3.37354955e-004 3.74630070e-003 -3.98837868e-003 -9.47026443e-003
      -4.96825343e-003 -5.11847727e-004 3.04219662e-003 -1.90583512e-003
      -8.68813822e-006 7.63533870e-003 9.20672435e-003 2.73758778e-003
      -6.16347697e-003 -5.12119429e-003 3.71611444e-003 5.27857384e-003
      -1.11711759e-003 8.61537922e-003 -4.97883884e-003 -8.33318662e-003
      -7.39153661e-003 -6.40940480e-003 -5.47162630e-003
      -1.07085612e-003 6.93579484e-003 1.51848514e-002 1.08600082e-002
      -4.99563292e-003 -1.22269895e-003 2.11942103e-003 1.96857611e-003
      -9.41531733e-004 4.56979545e-003 5.50418347e-003 1.02158412e-002
      -8.96956213e-003 6.26486959e-003 1.68408884e-003 -6.35514781e-003
      -1.02047091e-002 -7.06581306e-003 -6.07909868e-004 1.32531102e-003
      -2.99915601e-003 2.26170709e-003 3.98636376e-003 -1.46634958e-003
      -4.21244744e-003 -4.63774893e-003 -7.83199724e-003
      -6.57907035e-003 1.27977692e-003 -7.02570891e-003 5.84247708e-003
      -2.96062068e-003 -3.87247466e-003 2.75344425e-003 -1.96150714e-003
      5.40289911e-004 1.90276490e-003 -2.99231906e-004 9.36848577e-004
      4.40201256e-003 -6.03207061e-003 -8.02402757e-003 3.79469013e-004
      -6.55859383e-003 -2.79265735e-003 -3.27418628e-003
      -7.09085353e-003 -9.29674320e-003 3.17459274e-003 3.52158281e-003
      -1.52679463e-003 8.14275444e-003 -9.67329717e-004 -8.86216853e-003
      -1.78594999e-002 -3.34980339e-003 -2.53921933e-003
      -1.80451549e-003 -5.27699012e-003 -4.56772884e-003 8.41233041e-003
      -2.78638909e-003 -2.98892567e-003 -1.04108108e-002
      -1.48007292e-002 -4.71760379e-003 3.79489595e-003 -1.09482592e-003
      -7.10836286e-003 -3.34478146e-003 -3.43375909e-003
      -4.65622637e-003 -6.89220103e-003 -1.36157013e-002
      -1.14233783e-002 6.07577269e-004 -9.34849551e-004 -1.09757502e-002
      -7.41646020e-003 -6.11996558e-003 -1.07408604e-002
      -2.60204952e-002 -3.12417112e-002 -1.42626353e-002
      -5.03599085e-003 4.40551294e-003 2.02001166e-003 8.87595769e-003
      6.14110031e-004 -4.35768906e-003 -4.58953576e-003 -6.20696414e-003
      -1.14273198e-003 -8.61536246e-004 7.26358220e-003 4.56327340e-003
      6.26012078e-003 -1.57581479e-003 -7.27216387e-003 -1.16119729e-002
      -1.06671667e-002 -3.29516991e-003 -3.37460497e-003
      -1.38483914e-002 -2.50178669e-003 -1.34581409e-003
      -4.67386469e-003 -4.24922258e-003 -3.71286739e-003
      -4.57753427e-003 1.44892663e-003 -1.25935022e-003 -1.22649064e-002
      -5.88055979e-003 -7.52664078e-003 -6.00834005e-003
      -8.71881004e-003 -1.13233654e-002 -8.20437726e-003 1.84798322e-003
      6.96229609e-003 -1.39306271e-002 -9.28807538e-003 -6.50046812e-003
      -3.55470693e-003 -9.71717574e-003 -8.35054554e-003
      -3.12125729e-003 1.25843147e-002 6.01603277e-003 -1.15000727e-002
      -1.33082317e-002 -1.14523144e-002 -1.96132176e-002
      -2.18105204e-002 -1.37693398e-002 -6.08159695e-003 1.87872201e-002
      7.07463128e-003 -8.66854098e-003 -7.12251617e-003 -9.45444498e-003
      -6.72574667e-003 -1.22795328e-002 -1.27177481e-002
      -6.46381360e-003 1.13199474e-002 7.57635571e-003 -2.00086012e-002
      -1.32251577e-002 -1.58969313e-002 2.25942326e-003 -2.37130863e-003
      -1.09057268e-002 -1.09844822e-002 1.52618578e-002 2.10289117e-002
      -9.95482411e-003 -1.52299209e-002 -1.62158199e-002
      -1.72987301e-002 -2.37664096e-002 -2.06360128e-002
      -9.93949920e-003 2.23163590e-002 2.65903473e-002 -1.05278092e-002
      -1.43582495e-002 -1.92998648e-002 -8.42894055e-003
      -1.35533437e-002 -1.75587106e-002 -1.45014590e-002 2.44261399e-002
      -3.12581472e-003 -2.20875870e-002 -7.05426792e-003
      -1.14842281e-002 -3.91601073e-003 -3.55280191e-003
      -5.54644875e-003 -1.34527879e-002 -4.27757390e-003
      -1.27124069e-002 -1.57685410e-002 8.86380952e-003 3.75770521e-003
      -3.46849527e-004 -1.58923515e-003 -5.54745551e-003
      -1.29091088e-002 -2.55935499e-003 1.51600307e-002 -1.52672222e-002
      -1.19606294e-002 -1.04523301e-002 1.40503538e-003 -6.76032109e-003
      -1.38056371e-002 -7.17033492e-003 4.10308503e-003 2.98606930e-003
      -6.84392173e-003 1.60910226e-002 1.09500987e-002 7.85297621e-003
      9.17274854e-004 -7.55019579e-003 -7.32395006e-003 8.83638393e-003
      -1.49490554e-002 -1.11803170e-002 7.49048265e-003 -7.56841095e-004
      -5.85891679e-003 -6.15661731e-003 -1.60891544e-002
      -1.62286554e-002 -9.37601179e-003 -3.65304695e-005
      -2.95324461e-003 9.73729696e-003 2.96234293e-003 -2.77057616e-003
      -3.31595028e-003 -1.41844293e-002 -1.37094231e-002
      -9.57488269e-003 8.77150043e-004 1.60908187e-003 1.50535535e-002
      6.87221857e-003 -3.35290749e-003 -8.28832947e-003 -1.24244345e-002
      -1.15217995e-002 1.53478561e-003 3.22290300e-003 6.64939638e-003
      1.57064535e-002 1.15768593e-002 1.53795339e-003 -7.40328431e-003
      -1.66666266e-002 -1.44320745e-002 -2.75174482e-003
      -2.17614346e-003 3.80596844e-004 3.96035146e-003 5.13371453e-003
      6.96346455e-004 -3.17529519e-003 -1.30685754e-002 -2.27181744e-002
      -1.23949898e-002 8.77451152e-003 5.25655691e-003 1.43076107e-003
      7.51378480e-003 3.19957687e-003 5.34059806e-003 -1.52244112e-002
      -1.94835514e-002 -2.37248809e-004 1.81501702e-004 4.62630676e-004
      6.89418009e-003 7.11766072e-003 5.11298748e-003 -5.88280847e-003
      -1.86616350e-002 -1.90508030e-002 -6.24987064e-003
      -2.40480388e-003 -2.84192665e-003 -2.86667771e-003 7.11833779e-003
      9.62560531e-003 -6.83911471e-003 -1.95212513e-002 -1.64482873e-002
      -5.79700759e-003 1.60810370e-002 5.07441070e-003 2.93664489e-004
      3.69243976e-003 1.28935766e-003 5.99199720e-003 -1.18517112e-002
      -1.04656201e-002 1.12525951e-002 1.10844923e-002 -8.14880989e-003
      2.12724833e-003 3.13880271e-004 -4.20939550e-003 -7.58926338e-003
      -9.80281830e-003 -5.14929229e-003 1.12517672e-002 -4.97275870e-003
      -1.27415014e-002 -4.71781846e-003 5.06189477e-004 2.34188139e-003
      -3.65408021e-003 -1.26182707e-002 -1.31590413e-002
      -5.06715104e-003 -7.54370121e-003 -2.50983126e-002
      -1.01044271e-002 -4.03662631e-003 -1.06306104e-002
      -8.68093595e-003 -1.33851301e-002 -1.34293819e-002
      -3.50828137e-004 2.23727487e-002 2.00506253e-003 4.62537492e-003
      8.97112768e-004 -3.10165482e-003 -9.87171289e-003 -7.32740294e-003
      -1.70311972e-003 2.19664890e-002 1.60791166e-002 -5.31504769e-003
      -7.36241462e-003 -6.51656650e-003 -5.26064076e-003
      -4.87776380e-003 -4.62513324e-003 -5.39182080e-003 1.49799744e-002
      1.40962051e-003 -1.77415628e-002 -7.82259740e-003 -2.14062794e-003
      -2.74025719e-003 -6.18344219e-003 -5.61943883e-003
      -3.84577829e-003 1.07148523e-002 -1.68159662e-003 -1.36471074e-002
      -1.04459040e-002 4.16332623e-004 -1.86328019e-003 -4.50844038e-003
      -5.36400639e-003 -9.52485017e-003 3.33657791e-003 2.46803444e-002
      -8.49179737e-003 -1.30824428e-002 -6.08066237e-003 4.47735144e-003
      1.59207638e-003 8.87161936e-004 -8.50632321e-003 1.96391698e-002
      1.17783817e-002 -6.16023177e-003 -1.44946780e-002 -8.19371082e-003
      1.55777007e-003 -4.16258862e-003 -4.11937828e-004 -1.17311412e-002
      1.65792666e-002 3.06409621e-003 -9.01084300e-003 -1.30462423e-002
      2.02568714e-003 5.19836694e-003 -2.24792748e-004 -1.58009469e-003
      -9.69398115e-003 3.69942910e-003 2.20456696e-003 -8.68837163e-003
      -1.21494336e-002 -1.05304951e-002 -7.18436204e-004
      -2.04498507e-003 -2.72701285e-003 -1.53495772e-002 8.70581716e-004
      9.96902399e-003 2.34197034e-003 -6.47078780e-003 -6.21534465e-003
      1.62880577e-003 -4.77930019e-003 4.07731207e-003 1.65737025e-003
      7.75894010e-003 1.34946620e-002 6.55279262e-004 1.22359185e-003
      -2.05997305e-004 7.07972868e-005 -8.50413926e-003 6.10947795e-003
      9.04700067e-003 8.16940144e-003 -2.69896747e-003 -1.25914440e-003
      -4.05309722e-003 -5.88222547e-003 2.76020193e-003 2.22423856e-004
      4.03035711e-003 -7.73236714e-003 -8.20008200e-003 -3.08846659e-003
      7.38859118e-004 4.06247284e-003 1.04189757e-003 6.07767189e-003
      -5.42396447e-003 5.82843041e-003 -9.95707884e-003 -3.07666673e-003
      9.59248841e-003 -1.40143128e-003 8.26977484e-004 -1.68467907e-003
      -3.16341780e-003 -5.12645068e-003 2.45095161e-003 -4.09988221e-003
      -4.02205531e-003 1.30847543e-002 2.65189301e-004 -8.62444285e-004
      3.41298897e-003 7.01797986e-003 1.28640132e-002 9.83809028e-003
      -8.85200789e-005 3.23066814e-003 -1.53415755e-003 -5.99242281e-003
      -7.39200623e-005 -2.14767759e-004 -8.60496075e-004
      -2.80839298e-003 1.25304959e-003 -1.35849714e-002 -9.43131093e-003
      1.82346581e-003 -1.27698286e-002 -9.23201349e-003 1.00765051e-003
      6.68137753e-003 8.12320318e-003 2.04174616e-003 -1.04712788e-002
      -6.17660629e-003 1.18174152e-002 -4.28350177e-003 -7.54052261e-003
      -3.52390949e-003 5.55088837e-003 8.81975051e-003 9.69624612e-003
      1.99425686e-003 8.52290168e-003 1.48282694e-002 -1.17819635e-002
      -8.31671339e-003 -2.00013499e-004 4.47059865e-004 2.74685142e-003
      6.46025082e-003 -1.27377070e-003 1.64449513e-002 -2.12171464e-003
      -2.57361215e-002 -1.61305014e-002 2.63745454e-003 6.64480496e-003
      -1.33711228e-003 -5.36476076e-003 -1.48276491e-002
      -5.45252720e-003 3.01312422e-003 -1.35033168e-002 -5.83687937e-003
      6.04123762e-003 9.90477763e-003 -1.37436634e-003 -3.68466484e-003
      -1.62915196e-002 5.85276075e-003 6.75867498e-003 -4.89609549e-003
      -4.96105873e-004 1.97460898e-003 -6.37549907e-004 -2.06357823e-003
      -3.71307414e-003 -6.18970487e-003 9.58122499e-003 2.38916953e-003
      6.25720434e-003 9.01515223e-003 1.06298877e-002 3.41790123e-003
      -3.50181828e-004 -2.66289152e-003 -1.26217445e-003 4.57809027e-003
      -1.30028848e-003 3.50740948e-003 2.12567672e-003 2.95841368e-003
      6.76906155e-003 -1.56669214e-003 -1.02793416e-002 -1.57772228e-002
      5.31302206e-003 -2.06714380e-003 1.09569123e-002 2.38180393e-003
      5.23463357e-003 1.11221252e-002 6.37181243e-003 -1.21649727e-002
      -1.00174118e-002 -1.27576152e-003 -1.28182839e-003 5.06954035e-003
      1.37663761e-003 1.70987193e-003 -3.14485887e-003 3.98216164e-003
      -4.03939420e-003 7.32758781e-003 6.96348026e-004 1.19002042e-002
      1.76953361e-003 -5.41710062e-003 -5.23495348e-003 -8.42375960e-003
      -2.08563474e-003 -2.91160191e-003 7.83311669e-003 2.20531644e-003
      1.37284049e-003 9.69814209e-006 -6.39719423e-003 -1.84207084e-003
      5.39623853e-003 8.37631349e-004 -1.27351535e-002 5.45093790e-004
      3.97604425e-003 4.52089636e-003 -1.31923975e-002 -2.22133007e-002
      -1.11799883e-002 -9.10929590e-003 -4.05850029e-003
      -5.33207029e-004 7.03498768e-003 5.64649468e-003 7.54696364e-003
      1.68055354e-003 4.46867751e-004 1.70269515e-003 -1.96035113e-003
      -5.17567666e-003 -1.02131255e-002 1.03119691e-003 -3.94123560e-003
      -2.52101570e-004 5.00852457e-006 3.58766201e-003 9.84629057e-003
      6.45502331e-003 8.66377074e-003 7.98810390e-004 -1.11859748e-002
      -1.16387242e-003 -5.58196846e-003 -1.76062603e-002
      -1.73466038e-002 -9.67025850e-003 -1.05164442e-002
      -4.41091601e-003 2.16368979e-004 2.16937484e-003 2.78808386e-003
      -7.25648925e-003 -1.04583977e-002 1.66469766e-003 2.64383457e-003
      1.19770095e-002 1.23674888e-002 1.02987289e-002 -2.95397663e-003
      2.36378075e-003 -8.58847983e-003 -6.27301214e-003 6.59108674e-003
      1.26144830e-002 8.47645383e-003 1.03003401e-002 4.27523069e-003
      -2.21956195e-003 -6.81627681e-003 -5.86186722e-003
      -3.07660177e-003 4.22514370e-003 3.16430186e-003 6.07815397e-004
      5.01919910e-003 1.73570472e-004 -1.53557412e-005 -8.13718513e-003
      -1.23653756e-002 -1.28285801e-002 1.15535851e-003 9.73441266e-003
      1.26257958e-002 1.80517714e-002 1.00035351e-002 -4.48310748e-003
      -5.29121561e-003 -3.29735130e-003 -1.75468326e-002
      -8.11354630e-003 -2.90191063e-004 4.67015803e-003 1.58447307e-002
      7.51202647e-003 -6.14726404e-003 -1.47261401e-003 1.40177086e-002
      -5.54557284e-003 -1.34126982e-002 -1.40009867e-002
      -3.29121132e-003 -1.33390930e-002 -1.20932446e-003 9.90503002e-004
      2.24066954e-002 1.03927851e-002 -6.09636959e-003 -1.39625231e-002
      -1.78598687e-002 -2.54949722e-002 -2.33521834e-002
      -6.24117255e-003 6.45437557e-003 2.32768953e-002 -2.67047016e-003
      -1.15358466e-002 -1.29896160e-002 -1.29754981e-002 4.41745901e-003
      -1.29790185e-002 -5.96570084e-003 -9.08785220e-003
      -6.67078746e-003 2.14364234e-004 -7.54523696e-003 -5.16335340e-003
      -1.54331361e-003 -1.66210951e-003 -1.43465996e-002
      -1.03305373e-002 -1.29181640e-002 -6.47564977e-003 2.29004733e-002
      -9.00514051e-003 -1.41174430e-002 -1.53543111e-002
      -1.85343828e-002 -2.72429269e-002 -1.26596019e-002 3.24797886e-003
      2.85491887e-002 2.77255103e-002 -6.07838109e-003 -1.47440415e-002
      -7.50601012e-003 -1.05192875e-002 -2.69301794e-002
      -1.63416564e-002 -6.69077178e-003 2.98978016e-002 7.87175540e-003
      -7.98194297e-003 -1.72112498e-003 -8.25599069e-004
      -1.02126561e-002 -1.92535389e-002 -1.27613842e-002
      -1.14842756e-002 5.20866830e-003 3.10470304e-003 -8.16640723e-003
      -4.41275490e-003 -2.15090648e-003 -7.32341968e-003
      -2.01612860e-002 -2.02802327e-002 -2.01630797e-002 1.06780222e-002
      2.62586866e-002 -2.70384271e-003 -2.87911040e-003 1.38762849e-003
      1.62590615e-004 -8.92254431e-003 -8.13327264e-003 -3.13886179e-004
      2.35873014e-002 1.26192067e-002 -4.50898334e-003 8.16468336e-003
      9.54350084e-003 8.55632033e-003 8.11871141e-003 2.42557121e-003
      3.77342268e-003 1.02286097e-002 3.31360591e-003 -1.34068998e-002
      -6.40104897e-003 -2.30513653e-003 -4.76316968e-003
      -1.13039827e-002 -2.06338707e-002 -1.69887003e-002 3.11817112e-003
      -5.93790552e-003 -2.27006841e-002 -9.23514832e-003
      -7.14489445e-003 -4.26661316e-003 -5.97247900e-003
      -1.92294512e-002 -1.51440240e-002 -3.18225077e-003 1.36884004e-002
      8.73432960e-003 1.39953168e-002 1.04343696e-002 9.28710855e-004
      2.05028243e-003 -6.58552861e-004 6.48653135e-003 1.56531632e-002
      1.16768833e-002 2.55201589e-002 2.17017364e-002 1.18556777e-002
      4.10674000e-003 -4.60220414e-004 4.35765920e-004 1.09685799e-002
      1.89226866e-002 -1.28020551e-002 -2.02841070e-002 -2.82999524e-003
      -2.00727372e-003 -6.69963192e-003 -6.45234529e-003
      -1.55556118e-002 -1.60868820e-002 -9.02534928e-003
      -6.57457253e-003 -5.31109655e-003 -4.99759661e-003
      -7.46327452e-003 -1.87085681e-002 -1.79654192e-002
      -1.91776399e-002 -1.00534922e-002 -8.70438106e-003 2.45194398e-002
      3.28922980e-002 1.58034563e-002 9.69590805e-003 7.12591456e-003
      4.70989896e-003 5.77793503e-003 1.21111134e-002 2.43654009e-002
      1.46283302e-002 1.79177634e-002 1.42792184e-002 1.07147908e-002
      1.10797398e-002 9.61710140e-003 8.54273420e-003 6.36256812e-003
      1.12541551e-002 -1.85459331e-002 -8.33270326e-003 2.14875606e-003
      -9.81912133e-004 -5.67367300e-003 -4.67416225e-003
      -4.81561432e-003 2.76752748e-003 -1.46743888e-002 -1.94786806e-002
      -2.17748154e-002 -1.00719146e-002 -6.75172685e-003
      -2.98878248e-003 2.23950460e-003 8.98147176e-004 -4.09240229e-003
      -2.13127080e-002 1.99493114e-002 1.60514414e-002 1.57407131e-002
      1.71473585e-002 1.70119125e-002 1.51694510e-002 1.43305017e-002
      1.61021259e-002 1.77037977e-002 7.72509817e-003 -3.28766205e-003
      6.40227459e-003 1.12485411e-002 9.90349799e-003 7.18415109e-003
      8.82805604e-003 1.50108673e-002 1.59227438e-002 -1.73163060e-002
      -2.58803423e-002 -5.39643737e-003 6.41101319e-003 6.25133980e-003
      9.97164845e-003 1.34932166e-002 9.89909843e-003 -1.69780347e-002
      -1.77043211e-002 -2.18881685e-002 -5.47593692e-003 7.57339702e-004
      -2.81898095e-003 -8.53366102e-004 9.33888089e-003 2.25075078e-003
      -1.79502647e-002 1.92065220e-002 2.84546375e-004 5.30937500e-003
      5.40528959e-003 2.34391494e-003 8.17898288e-003 1.19032422e-002
      1.69291161e-002 2.00240966e-002 9.34776384e-003 2.66275811e-003
      8.14329740e-003 1.30882468e-002 1.22358799e-002 1.00197755e-002
      1.42459227e-002 2.09250432e-002 1.54603329e-002 -1.05616478e-002
      -1.43448226e-002 1.58267363e-003 1.49816438e-003 -9.27008223e-003
      2.06736196e-003 1.11094043e-002 3.54458927e-003 -1.10663297e-002
      -2.15332266e-002 -2.40524448e-002 -1.80169963e-003 4.54940880e-003
      6.26498973e-003 1.28746126e-002 8.07547662e-003 -2.68323976e-003
      -1.82007384e-002 6.55509112e-003 8.74838699e-003 6.28873101e-003
      1.27404490e-002 1.42788617e-002 6.39841100e-003 8.40458926e-003
      1.61457621e-002 1.03601478e-002 1.17233489e-003 1.48349758e-002
      9.49073955e-003 6.74928632e-003 1.21194283e-002 8.85674916e-003
      1.06163137e-002 1.57072190e-002 7.95274880e-003 -2.45414078e-002
      -2.09921375e-002 -5.41145029e-003 9.34010372e-003 1.45548452e-002
      1.01329228e-002 -7.88469682e-004 -8.21903907e-003 -2.13997457e-002
      -1.60931647e-002 -6.52503362e-003 -4.24496550e-003 9.32040624e-003
      1.65718030e-002 1.13865016e-002 2.23904173e-003 -3.64923710e-003
      -1.70218218e-002 6.67087873e-003 1.22507466e-002 9.46474634e-003
      5.97641338e-003 7.11964350e-003 8.77314992e-003 1.21406903e-002
      1.13187069e-002 6.71725161e-003 7.02287536e-003 9.38600861e-003
      1.34700928e-002 1.36724198e-002 1.37590161e-002 1.12045137e-002
      2.09834501e-002 1.24715352e-002 1.12711289e-003 -1.85113382e-002
      -1.22934114e-003 -6.29189750e-003 5.49461460e-003 1.07171452e-002
      1.04008690e-002 6.48955908e-003 3.62554146e-003 -2.03902442e-002
      -1.94605440e-002 -7.50957942e-003 -1.48293199e-002 6.73550041e-003
      5.32914931e-003 1.57264601e-002 1.55387977e-002 1.43325943e-002
      -1.74076371e-002 3.01567838e-003 1.11445505e-002 1.46051133e-002
      1.54608116e-002 1.20181460e-002 8.26495420e-003 1.72717683e-002
      1.24530904e-002 1.67098449e-004 -6.18222356e-003 7.05111248e-004
      1.27840079e-002 1.98190100e-002 1.96950175e-002 1.38579896e-002
      1.49026196e-002 1.98544599e-002 7.04102870e-003 -1.47572737e-002
      -1.25588030e-002 -8.30707699e-003 4.08176892e-003 5.03231073e-003
      7.59529741e-003 6.50655944e-003 6.28984766e-003 -1.74011588e-002
      -1.54142873e-002 -1.08107096e-002 6.86560385e-003 4.08970425e-003
      4.93676448e-003 -2.17099627e-003 -2.29161838e-003 -9.69055283e-004
      -1.23040117e-002 -9.46922507e-003 -1.21942107e-002 9.05961730e-003
      1.59628578e-002 1.78669430e-002 8.35084729e-003 6.38708379e-003
      1.06543908e-002 1.47020223e-003 8.86807125e-003 1.11527219e-002
      1.76743492e-002 1.72266047e-002 2.48242449e-002 1.87740009e-002
      1.90964434e-002 1.84015147e-002 1.52421398e-002 -1.86084043e-002
      -1.76962186e-002 6.85428781e-003 1.95588288e-003 9.04597691e-004
      -1.12063270e-002 -8.72625783e-003 -9.39042866e-003
      -1.39159979e-002 -9.54367034e-003 -3.46134556e-003 1.20045831e-002
      1.16512496e-002 1.38497455e-002 3.94912018e-003 -2.19891476e-003
      -9.41357017e-003 -6.98232558e-003 6.46584341e-003 1.49115352e-002
      1.63633227e-002 9.74708330e-003 1.48666548e-002 1.08039202e-002
      6.17064629e-003 -2.75213574e-003 2.84823729e-003 1.81760509e-002
      1.87623948e-002 1.55554004e-002 1.00033162e-002 1.99081916e-002
      1.23074809e-002 4.69376845e-003 8.90809344e-004 8.63543339e-003
      -9.01427120e-003 -7.42318202e-003 -1.11135968e-003 4.10667760e-003
      3.07422667e-003 -5.57097467e-003 -1.00388378e-002 -1.84242148e-002
      -5.30338194e-003 6.78589148e-003 7.54626747e-003 3.39376112e-003
      2.76603294e-003 -6.62895909e-004 -9.48094856e-003 -1.50506776e-002
      -1.54357972e-002 -1.69054058e-003 1.41231436e-002 3.08117247e-003
      1.02351478e-003 5.60931442e-003 1.04218386e-002 3.03592067e-003
      -2.19517853e-003 -1.61194755e-003 7.36779813e-003 1.44052301e-002
      -4.46941284e-003 -6.57705031e-003 7.30130239e-004 3.25361313e-003
      6.48944057e-004 6.25296403e-003 6.78664353e-003 1.93270110e-002
      5.08718938e-003 -3.67933814e-003 -4.30275127e-003 -6.12581335e-003
      -1.13791786e-002 -1.15721002e-002 -1.73396058e-002
      -1.75874718e-002 5.05866762e-003 1.77035928e-002 6.12486992e-003
      -2.95644975e-003 7.99131114e-004 -4.47066827e-003 -7.39307888e-003
      -1.59811862e-002 -1.70550719e-002 1.11363707e-002 5.69304312e-003
      -1.00790001e-002 -1.34992730e-002 -1.01074195e-002
      -9.77288559e-003 -4.40610526e-003 -3.81574780e-003
      -3.09464918e-003 1.02966242e-002 5.40010212e-003 -1.27124134e-002
      -9.59963351e-003 -2.98827002e-003 2.17569689e-003 7.60221295e-003
      4.55000997e-003 1.30554370e-003 2.00824291e-002 2.01570354e-002
      1.97210372e-003 -8.85260291e-003 -9.18168481e-003 -8.98470357e-003
      -1.58541650e-002 -2.41820011e-002 -1.44630754e-002 1.58316009e-002
      2.13773400e-002 -1.28027971e-003 -2.49278708e-003 -7.69437011e-003
      -1.55308644e-005 3.08922864e-003 -4.27780999e-003 8.99840845e-004
      2.99201179e-002 -8.92250333e-003 -2.02982966e-002 -1.02001708e-002
      -1.86273747e-003 6.39637979e-003 1.13970870e-002 8.40964075e-003
      -3.27133131e-003 3.51602398e-003 -7.56374327e-003 -2.20889878e-002
      -1.04462551e-002 6.93446607e-004 1.23456754e-002 1.51399542e-002
      5.98205207e-003 -1.17083583e-002 2.17965082e-003 7.84090627e-003
      -2.12159418e-002 -1.34567525e-002 -6.13812217e-003 2.03501736e-003
      7.59491138e-003 5.14583336e-003 1.44881895e-003 2.46683042e-002
      -4.36967285e-003 -1.93474051e-002 -7.13173300e-003 6.96630916e-003
      8.59300885e-003 7.85112008e-003 3.05725867e-003 -4.54818457e-003
      6.26889290e-003 -6.50541764e-003 -6.28462527e-003 -2.05689110e-003
      4.61573107e-003 1.26892766e-002 -4.03884985e-003 5.46041690e-003
      -4.89430269e-003 -1.23918811e-002 -8.82905535e-003
      -4.05157125e-003 2.56707938e-003 1.86387021e-002 1.77344196e-002
      4.90259100e-003 1.47563335e-003 -5.39821107e-003 -1.10315951e-002
      -1.21829389e-002 -9.67939291e-003 -9.36371926e-003
      -3.63934599e-003 4.23718535e-004 -3.32673662e-003 4.42448119e-003
      -6.52683014e-003 -1.99099220e-002 -1.72846634e-002
      -4.92740655e-003 -2.79790070e-003 1.26520423e-002 1.92631017e-002
      6.25216868e-003 7.89914280e-003 -4.06850781e-003 -1.49484305e-002
      3.32806772e-003 4.41517727e-003 7.90059660e-003 1.37388846e-002
      1.86930764e-002 1.05970365e-003 -2.28627026e-003 -4.23599780e-003
      -2.62740388e-004 7.21545797e-003 -4.93596657e-004 6.37226040e-005
      3.98437725e-003 5.33257425e-003 -9.17039998e-003 -1.94970910e-002
      -1.76368393e-002 -1.99660566e-003 -1.02679599e-002
      -6.12611789e-003 -2.28293095e-004 8.29982013e-003 2.18135230e-002
      8.93115532e-003 5.58831124e-003 1.98724749e-003 -1.05374039e-003
      -8.99675675e-003 -3.05767660e-003 -7.61147472e-004
      -2.11141421e-003 3.18133947e-003 -1.05947312e-002 -9.24721453e-003
      -2.04056017e-002 -1.37615027e-002 1.10938828e-002 4.32065176e-003
      8.19070265e-003 1.08587258e-002 1.02586104e-002 4.31399513e-003
      -7.77899241e-003 -9.24251694e-003 1.62807503e-003 -1.17168697e-002
      -1.11304633e-002 7.32524181e-003 4.33181971e-003 1.04735941e-002
      2.04775319e-003 -1.19539350e-002 -8.43555015e-003 -1.04316138e-002
      6.33167149e-003 6.17609185e-004 8.26077070e-003 7.71347340e-003
      1.14492665e-003 -7.74458284e-003 -8.46904330e-003 -1.18904561e-002
      -5.72789181e-003 -4.79095802e-003 -9.09079425e-003 1.97368930e-003
      4.16200003e-003 8.33264273e-003 -1.44808111e-003 -5.83112985e-003
      -1.79571379e-002 -1.47556867e-002 2.01087329e-003 -1.06239622e-003
      6.48108684e-003 9.05224215e-003 3.61476303e-003 -5.29644033e-003
      -1.28784804e-002 -8.93899519e-003 4.00537346e-003 2.80670519e-003
      -5.83098317e-003 -5.25046897e-004 3.49766132e-003 -6.03315746e-003
      -1.64963398e-002 -1.95149872e-002 -8.25377554e-003 1.79928134e-003
      7.31167058e-003 6.76023425e-004 3.71421617e-003 8.02438892e-003
      1.26972962e-002 -2.60995561e-003 -2.32259813e-003 -8.23209877e-004
      2.87676719e-003 1.38755294e-003 -2.31630984e-003 3.75915464e-004
      4.85732686e-003 3.75902979e-004 -1.11151934e-002 -1.10367276e-002
      -5.61524555e-003 -7.09831761e-003 -2.26598186e-003
      -3.82543798e-003 9.42334812e-003 1.07353553e-002 5.79597708e-003
      1.85300806e-003 -2.92900670e-003 8.13742448e-003 1.35266338e-003
      -8.98686145e-003 -4.58489079e-003 6.67456444e-003 7.40965037e-003
      8.77328496e-003 8.71873461e-003 7.74314720e-003 8.53461772e-003
      1.75429240e-003 -2.31004204e-003 -2.30203033e-003 5.45819337e-003
      1.04901791e-002 6.56782137e-003 6.59819052e-004 3.41149210e-003
      2.51413067e-003 -5.71825588e-003 -3.11576109e-003 -5.00189257e-004
      1.41841341e-002 1.56079121e-002 8.71051289e-003 8.86212848e-003
      6.29978860e-003 -8.69019143e-003 -8.24537501e-003 -9.62249562e-003
      -2.41715432e-004 7.61052454e-003 6.45587500e-003 1.11534717e-002
      1.36312377e-002 1.28686493e-002 2.30975309e-003 -1.50084915e-003
      -1.08548207e-002 7.74436025e-003 1.18315732e-002 8.32945015e-003
      3.02544259e-003 1.32001918e-002 1.44539597e-002 1.17985858e-003
      -7.00582191e-003 -4.26456053e-003 8.62792227e-003 1.72244590e-002
      1.83848608e-002 1.55090475e-002 1.89644154e-002 1.10407965e-002
      -7.52363540e-003 -1.48990871e-002 -8.42832122e-003 6.21559098e-003
      1.24957822e-002 1.07217031e-002 1.24616530e-002 1.45842852e-002
      9.31222830e-003 -6.10562274e-003 -1.26959924e-002 -9.28897131e-003
      7.99609261e-005 1.05812205e-002 6.79885969e-003 3.84856528e-003
      1.12200426e-002 9.34657175e-003 -9.78684518e-004 -1.59736518e-002
      -9.15323570e-003 -2.32836697e-003 1.17680132e-002 9.26593132e-003
      1.15241464e-002 2.19656080e-002 1.39770256e-002 -2.16982421e-003
      -1.31342486e-002 -1.70049667e-002 1.49145769e-003 7.75634544e-003
      5.95232425e-003 1.39352763e-002 1.23698395e-002 9.09039751e-003
      -2.00599222e-003 -1.55507578e-002 -1.06919948e-002 1.33045027e-002
      2.47059278e-002 1.50202373e-002 1.76441055e-002 2.43809503e-002
      2.20945477e-002 1.25753041e-002 -1.53565267e-002 -1.64811090e-002
      -1.87449541e-003 -1.68497697e-003 3.46185826e-003 4.73891571e-003
      1.22722536e-002 4.74038022e-003 -6.31549489e-003 -1.92273147e-002
      -7.11612543e-003 7.84232840e-003 5.33826323e-003 9.11976956e-003
      1.01844361e-002 1.35798333e-002 8.28708336e-003 5.91084827e-003
      -8.84615444e-003 -1.54551603e-002 1.35862306e-002 1.47826020e-002
      1.12179630e-002 8.97460990e-003 1.40678789e-002 1.49793653e-002
      5.40080946e-003 -1.85078587e-002 -4.62245848e-003 1.66756958e-002
      1.50372572e-002 1.38053177e-002 1.12697557e-002 1.87547728e-002
      2.22461559e-002 1.37595963e-002 -7.53260858e-004 -1.55061409e-002
      -8.32928286e-004 1.23316469e-003 7.98031222e-003 9.19050258e-003
      7.55270757e-003 9.69446078e-003 1.01446724e-002 -1.52634671e-002
      -1.27162645e-002 -3.65942600e-003 -7.92487059e-003 6.76431041e-003
      2.12922739e-003 1.36838621e-002 1.34079149e-002 1.35305468e-002
      -9.15437471e-003 -8.92596506e-003 6.00965787e-003 1.24821067e-002
      1.02652702e-002 1.09464582e-002 1.78742968e-002 2.42811758e-002
      2.29368862e-002 -2.97402940e-003 -1.22995861e-002 6.49561989e-005
      9.66814812e-003 1.33860651e-002 1.49239814e-002 2.09180284e-002
      2.68238857e-002 2.32327916e-002 -5.50596137e-003 -1.90762542e-002
      -1.33812651e-002 -9.42584965e-003 -2.94001657e-003 2.52464879e-003
      1.14532569e-002 7.30259670e-003 3.35414405e-003 -1.61846541e-002
      -3.32550448e-003 -7.84952287e-003 4.34168242e-003 -1.01042853e-003
      2.27924483e-003 8.75591952e-003 2.05800682e-003 5.26764244e-003
      -4.76642000e-003 -1.54498434e-002 -5.29751508e-003 5.98705234e-003
      2.32501747e-003 1.60714798e-002 1.93309914e-002 2.05078963e-002
      1.56115759e-002 -7.41662411e-003 -2.90301046e-003 -8.78346036e-004
      1.69622358e-002 1.18314382e-002 1.87641792e-002 1.66669581e-002
      1.33331167e-002 1.47634801e-002 3.59409978e-003 -6.04830403e-003
      -7.01464247e-004 1.17167002e-002 5.78641798e-003 -1.44642266e-003
      -6.30756258e-004 -9.82443616e-003 -4.23375843e-003
      -5.50885359e-003 3.51136387e-003 8.44622310e-003 2.14632656e-002
      1.85151156e-002 1.14214979e-002 2.90802657e-003 -2.04131007e-003
      -2.14277115e-003 3.74742085e-003 -4.30029677e-003 -7.85198121e-004
      1.10671343e-002 1.14942212e-002 7.59446668e-003 1.93639670e-003
      -4.65460727e-003 8.08875833e-004 -4.63112490e-003 -5.96263539e-003
      1.09193930e-002 1.69229023e-002 1.50009086e-002 1.20369168e-002
      4.30592569e-003 3.56256077e-003 3.32948752e-004 9.74790717e-004
      1.86513027e-003 -6.43675821e-003 7.73295527e-003 1.10605787e-002
      4.40547196e-003 -2.44631711e-003 -5.45261055e-003 -1.06287012e-002
      4.04313719e-003 1.82946529e-002 4.50848223e-004 3.63320392e-003
      8.18976481e-003 7.21571874e-003 -3.09733994e-004 -6.06809417e-003
      1.06501975e-003 1.71176158e-002 -1.06322942e-002 -1.04501173e-002
      6.12594979e-003 1.07979840e-002 9.68732592e-003 6.35859743e-003
      5.89887891e-003 -7.33616203e-003 1.94137203e-004 -4.48287278e-003
      -7.52293179e-003 2.65066442e-003 9.03606135e-003 1.48161715e-002
      6.95057772e-003 6.04771823e-003 6.90467015e-004 1.13064107e-002
      1.32040996e-002 -5.30186808e-003 -1.37437964e-002 -9.43776965e-003
      -4.72227298e-003 -5.69189806e-003 -1.09223658e-002
      -9.91550926e-003 1.46900089e-002 2.43601203e-002 -2.92864745e-003
      -8.83981492e-003 -1.80448999e-003 4.24393453e-003 5.52520948e-003
      -5.35674766e-003 2.47192942e-003 2.75652148e-002 -2.31448794e-003
      -1.12702176e-002 -1.22399526e-002 -3.56613752e-003
      -7.22086581e-004 -1.89072837e-003 -5.69103844e-003
      -1.07890861e-002 7.60926260e-003 1.22023765e-002 -1.27683172e-003
      -5.59377857e-003 1.24517572e-003 6.81225630e-003 1.23505369e-002
      7.06968422e-004 7.26831553e-004 2.18663830e-002 1.64051466e-002
      -9.02853161e-003 -1.54208280e-002 -8.22694041e-003
      -3.55690194e-004 -2.11821613e-003 -1.52868424e-002
      -7.30522256e-003 1.98455583e-002 2.17418782e-002 4.20626573e-004
      -8.31579696e-003 -2.45388318e-003 9.17635020e-003 1.22973118e-002
      -9.30210866e-004 5.45888953e-003 3.03502232e-002 5.21923369e-003
      -1.27237765e-002 -1.87135041e-002 -1.26550421e-002 1.14967034e-003
      4.09616390e-003 -2.79653165e-003 -1.83306949e-003 1.05399108e-002
      7.88667239e-003 -8.34983587e-003 -1.32857934e-002 -5.53576369e-003
      7.26017589e-003 1.33843338e-002 4.85448400e-003 1.43924309e-002
      1.72610879e-002 1.41257811e-002 -1.83928143e-002 -1.60105787e-002
      -7.30086165e-003 8.61787982e-003 8.65204912e-003 3.43339238e-003
      8.84908345e-003 2.64281407e-002 -6.35126047e-003 -3.12057883e-002
      -1.58180259e-002 -5.82949026e-003 5.67321433e-003 5.91969071e-003
      2.54796445e-003 7.41727371e-003 9.86958109e-003 -2.60214740e-003
      -2.41202135e-002 -2.09264793e-002 -5.30174002e-003 1.12472354e-002
      1.03567094e-002 2.18182476e-003 7.03167403e-003 1.49607472e-002
      -8.65433645e-003 -2.13074237e-002 -1.48377586e-002
      -1.55360100e-003 7.10740825e-003 1.05183991e-002 8.92719720e-003
      2.01007561e-003 9.28734429e-003 -1.31204464e-002 -7.37915048e-003
      -1.17586013e-002 -4.20076866e-003 -1.64432277e-003
      -3.34876147e-003 3.65197659e-003 -3.49525432e-003 -1.40720429e-002
      -1.19722150e-002 -7.12974509e-003 -8.79778247e-003
      -1.44100934e-003 8.98337830e-003 5.26414718e-003 6.14849199e-003
      -2.97447346e-004 -4.87616938e-003 -3.97047552e-004
      -6.73514232e-003 -7.75231142e-003 1.52612629e-003 3.84963257e-003
      -1.04706176e-002 -8.51538870e-003 -4.43450175e-003
      -2.75589176e-003 -2.74333358e-003 -8.97718314e-003
      -9.24953446e-003 3.75690265e-003 1.07549289e-002 -1.89936359e-003
      -1.95846730e-003 -3.98243638e-003 -7.71969464e-003
      -8.91682878e-003 -1.18941786e-002 -8.97490233e-003
      -5.32459095e-003 4.58304677e-003 4.83471667e-003 4.46594926e-003
      -3.04067577e-003 -3.68444412e-003 -1.00383637e-002
      -1.53939966e-002 -3.12540797e-003 -1.59711088e-003 3.95588868e-004
      -4.80598584e-003 -1.16094621e-002 -2.23770440e-002
      -9.08260606e-003 1.17877491e-004 -1.18287550e-002 -4.84760292e-003
      -2.18962412e-003 4.64649219e-003 6.99375116e-004 -2.97518307e-003
      -1.65151767e-002 -2.70657707e-003 1.31254853e-003 -1.04141654e-002
      4.42141388e-003 -1.68080407e-003 3.24716279e-003 1.04976480e-003
      -1.54932430e-002 -2.30500735e-002 -5.07659186e-003 2.08497047e-003
      -5.88797312e-003 3.44103016e-003 4.90299426e-003 -9.93704307e-004
      -9.95689724e-003 -1.58337783e-002 -3.01454123e-002
      -6.75696880e-003 -8.74263328e-003 -9.18018352e-003
      -5.49523672e-003 3.52834468e-004 8.12335126e-003 -3.91866267e-003
      -1.45268776e-002 -3.17985229e-002 -1.11503145e-002 1.19704129e-002
      -1.29664922e-003 1.08882040e-002 7.73006491e-003 1.50696076e-002
      2.98933312e-003 -7.95360934e-003 -1.68759264e-002 -7.21715624e-004
      1.02492273e-002 2.61476060e-004 7.62795238e-003 5.79661550e-003
      1.66871324e-002 7.44329765e-003 -3.62914964e-003 -2.39788909e-002
      -7.69799459e-004 -2.41431897e-003 -2.39642756e-003
      -5.70874847e-003 -3.62297660e-003 3.54230916e-003 -4.71504405e-003
      -9.53831710e-003 -2.22724155e-002 -1.37210907e-002
      -7.84200802e-003 -1.22333607e-002 -7.06771854e-003
      -5.79244830e-003 -9.99662559e-003 -1.16036376e-002
      -1.31641794e-002 -1.86016075e-002 -4.01953980e-003 1.45025542e-002
      9.18791257e-003 5.03846025e-003 2.42888462e-003 1.01156700e-002
      3.44059872e-003 5.05343731e-003 -1.04491161e-002 7.46380026e-003
      1.62351560e-002 9.94078218e-005 1.03844032e-002 6.20683376e-003
      -1.86249905e-003 -4.04807366e-003 4.64202883e-003 -3.85567918e-003
      2.05498911e-003 -1.23101417e-002 -6.30246429e-003 2.79655121e-003
      5.07052755e-004 -6.38325419e-003 -9.23808105e-003 -7.91721791e-003
      -2.76031252e-002 -1.44534362e-002 -1.36246383e-002
      -8.50941986e-003 1.22264829e-002 1.01943389e-002 7.52612390e-003
      2.81079975e-003 -1.00819729e-002 -3.54345180e-002 -1.77146085e-002
      1.63468830e-002 4.94731870e-003 1.62350945e-002 1.02365930e-002
      3.64370388e-003 -5.85812377e-003 4.47467854e-003 2.15877779e-003
      1.56183355e-002 1.32598411e-002 1.56827904e-002 2.45993100e-002
      1.97624248e-002 1.37273557e-002 5.01206005e-003 4.42245929e-003
      -4.65232966e-004 1.07132290e-002 -2.10898537e-002 1.79506221e-003
      1.48460260e-002 1.65331271e-002 1.24634877e-002 1.24573503e-002
      2.69912183e-003 -2.83031315e-002 -3.39300893e-002 -1.91200618e-002
      -7.23796058e-003 6.74818456e-003 4.32489300e-003 2.59054382e-003
      3.94807337e-003 2.26325225e-004 -2.20178906e-002 -2.34319456e-002
      1.84756722e-002 2.21601184e-002 2.52730437e-002 2.02019531e-002
      1.56475231e-002 1.09826950e-002 1.70081146e-002 9.69259813e-003
      1.90903675e-002 1.17493067e-002 1.45422472e-002 1.86468437e-002
      1.09848790e-002 8.91075935e-003 6.71417778e-003 2.01318674e-002
      1.53463241e-002 1.08187841e-002 -2.27731597e-002 -1.12313796e-002
      -6.71037473e-004 -2.78013735e-003 2.64725578e-003 2.02961755e-003
      1.01684069e-003 -1.17591526e-002 -1.95851307e-002 -2.30747908e-002
      -3.55161726e-003 1.61319301e-002 1.38404323e-002 1.23677505e-002
      1.43892104e-002 1.69660170e-002 1.23320744e-004 -2.25029327e-002
      1.10050673e-002 7.43238395e-003 5.04292874e-003 4.33279015e-003
      9.28559154e-003 7.95822870e-003 1.21853855e-002 1.95353739e-002
      2.20201239e-002 -3.19248508e-003 9.63565800e-003 1.45260822e-002
      1.83561482e-002 2.24984773e-002 1.94682907e-002 2.37309579e-002
      1.68294031e-002 1.10707972e-002 -2.85525490e-002 1.11410592e-003
      1.19752437e-002 1.34323370e-002 1.18243415e-002 8.86373594e-003
      1.09471437e-002 -2.02786503e-003 -2.88257673e-002 -1.94031149e-002
      -1.58038409e-003 4.13142890e-003 1.08670136e-002 1.14528518e-002
      1.41420094e-002 1.77330934e-002 4.71731462e-003 -1.48044303e-002
      -2.60224473e-003 6.16641855e-003 1.21667329e-002 1.52291302e-002
      2.17470173e-002 1.55743593e-002 2.44840831e-002 1.70864314e-002
      1.28481314e-002 -6.43165596e-003 6.91581704e-003 1.29646510e-002
      1.43883349e-002 2.10940316e-002 2.05431376e-002 2.23936681e-002
      1.59456115e-002 7.23160990e-003 -1.72288194e-002 -1.15988683e-002
      5.80147328e-003 6.29851362e-003 1.00873690e-002 1.51115451e-002
      1.51768913e-002 8.38174578e-003 -1.17680421e-002 -1.61515921e-002
      -1.50775192e-002 3.66871315e-003 9.11824685e-003 1.65628437e-002
      9.96348634e-003 1.09481299e-002 8.22995044e-003 -1.29767135e-002
      6.81528763e-004 -9.07581067e-004 1.18539128e-002 1.31092332e-002
      1.96193680e-002 1.87596008e-002 1.69799440e-002 1.55900735e-002
      1.20355915e-002 -1.57128496e-003 1.99741007e-005 1.33186523e-002
      1.69303026e-002 2.04033405e-002 1.34183997e-002 1.17344987e-002
      1.08455438e-002 9.59225651e-003 -2.32304409e-002 -1.30032776e-002
      6.23645214e-003 4.53229807e-003 1.81815326e-002 7.16701336e-003
      5.08030318e-003 5.19678043e-003 -1.14490157e-002 -1.44936312e-002
      -1.51060289e-002 1.13599850e-002 1.10258348e-002 2.14997437e-002
      4.20367625e-003 5.51175186e-003 3.99029441e-003 -1.61659624e-002
      -4.20566322e-003 9.28483158e-003 2.33533289e-002 2.01376341e-002
      2.36513261e-002 1.61392055e-002 9.17826127e-003 1.26116106e-003
      4.26972378e-003 5.99678315e-004 1.26458947e-002 2.51050089e-002
      2.05841791e-002 2.14170497e-002 1.25081558e-002 1.35096675e-002
      1.35003068e-002 3.42389941e-003 -1.31260371e-002 -1.51645634e-002
      4.05729469e-003 7.94233195e-003 1.09287072e-002 -2.80676829e-003
      3.66953682e-005 -3.14418715e-003 -1.37413908e-002 -1.84022319e-002
      -1.10206585e-002 -1.58132950e-003 7.85929058e-003 1.68267805e-002
      6.86714146e-003 8.48504994e-003 -5.15496917e-003 -6.31689792e-003
      3.30629363e-003 9.38574504e-003 1.52390543e-002 1.60407461e-002
      1.42594213e-002 9.31487139e-003 1.31103471e-002 1.15132136e-002
      3.80886183e-003 7.42283138e-003 1.72544029e-002 1.27337072e-002
      2.16668565e-002 2.54922248e-002 1.91525742e-002 1.97378546e-002
      8.09398200e-003 1.06455628e-002 -2.05106754e-002 -2.34518219e-002
      -5.98124322e-003 7.02640787e-003 1.84979364e-002 1.42631456e-002
      1.09792911e-002 -1.02725355e-002 -1.71642993e-002 -2.35111974e-002
      -2.00465024e-002 -1.50639017e-003 7.07957847e-003 1.87847801e-002
      1.60673950e-002 9.39446781e-003 -4.11557592e-003 -1.58632547e-002
      4.71212622e-003 1.14741549e-002 6.18506083e-003 1.40024824e-002
      2.23515220e-002 1.72182284e-002 1.47252828e-002 3.40066920e-003
      7.02318270e-004 7.26454146e-003 1.15359481e-002 1.04675805e-002
      1.62191298e-002 2.54903361e-002 1.61411650e-002 1.71590596e-002
      6.17506541e-003 -7.77831161e-003 -1.36904614e-002 -1.66483466e-002
      -7.75416754e-003 -1.44286407e-003 1.05452687e-002 9.45754535e-003
      1.21459027e-003 -1.09826606e-002 -1.08798258e-002 -1.77039288e-003
      -1.09846676e-002 -1.51890621e-003 5.59234293e-003 1.79256611e-002
      1.44189363e-002 -1.03719067e-003 -3.26254941e-003 7.72678340e-003
      4.77111852e-003 -4.62869322e-003 1.88815151e-003 1.35851270e-002
      1.81597248e-002 1.18160183e-002 5.19734249e-003 -7.49668339e-003
      -8.18181597e-003 9.83867142e-003 4.20905091e-003 1.14105688e-002
      1.91900246e-002 2.69350912e-002 1.10758701e-002 -4.09648381e-003
      -6.54823519e-003 5.19984588e-003 2.28674244e-003 -1.53491357e-002
      -8.90132226e-003 -7.29528908e-003 1.00847781e-002 7.77377421e-003
      -3.55603406e-003 -5.15915395e-004 1.13031082e-002 -1.61261891e-003
      -9.19429772e-003 -2.07105558e-003 2.86850007e-003 1.56186046e-002
      1.03893708e-002 -1.43936498e-003 1.69491349e-003 6.74874941e-003
      2.71276501e-003 -2.19649199e-004 4.92666243e-003 5.67014515e-003
      2.06340365e-002 1.18136685e-002 -3.34063382e-003 -7.54348794e-003
      3.64921172e-003 4.70980676e-003 1.09567388e-003 8.00947566e-003
      1.23926383e-002 2.35530734e-002 1.66268367e-002 -1.35751814e-003
      -4.60613705e-003 2.61268532e-003 -8.83521326e-003 -1.07610486e-002
      -5.96734113e-004 9.73751023e-003 2.15071179e-002 1.69321802e-002
      -6.01044158e-004 -1.90432218e-003 9.46312153e-004 -1.21679390e-002
      -5.73447254e-003 3.98337562e-003 1.12658143e-002 1.57678649e-002
      1.70505680e-002 7.88470451e-003 -1.68636057e-003 -3.06259817e-003
      -4.86776093e-003 -3.80344852e-003 9.15238261e-003 1.75204985e-002
      2.54494436e-002 1.80708840e-002 -1.29464001e-003 -6.98762620e-003
      -1.17784254e-002 -7.16559635e-003 -1.15701538e-002 6.68321131e-003
      1.59291234e-002 2.30250545e-002 2.62106657e-002 6.68837177e-003
      -1.54095264e-002 -1.55174192e-002 -2.27201870e-003
      -1.37419337e-002 -1.95148727e-003 -1.02442002e-003 1.05424169e-002
      -4.89180908e-003 -1.27484556e-002 -7.11848168e-003 5.05273114e-004
      -3.14273243e-003 -1.63712315e-002 -2.67828838e-003 3.14148609e-003
      1.41465552e-002 -7.35488371e-004 -2.08756188e-003 -2.37990217e-003
      3.00083333e-003 -5.17395930e-003 -1.35643668e-002 -9.34578246e-004
      1.43622851e-003 2.67943065e-003 -5.10127191e-003 -1.07031008e-002
      -1.15499077e-002 -5.28964307e-003 -6.30917214e-003
      -9.58729815e-003 2.76065478e-003 -2.90133408e-003 4.25060699e-003
      -6.30860729e-003 -1.19447466e-002 -8.61579273e-003
      -4.08046879e-003 -6.89854263e-004 -1.98160075e-002
      -2.88127223e-003 -1.28389359e-003 -2.43373076e-003
      -7.83231203e-003 -6.82020839e-003 -6.80825859e-003 3.94610176e-003
      7.88718462e-003 -1.32583585e-002 2.30499986e-003 -4.35255514e-003
      -1.16935943e-003 -4.53042332e-003 -7.33632594e-003
      -8.04981310e-003 1.06164329e-002 -7.91615527e-003 -1.43493563e-002
      -5.35884174e-003 -3.28055350e-003 -8.14624224e-003
      -1.65058989e-002 -1.75063312e-002 -9.32068937e-003 6.33777818e-004
      -3.55732744e-003 -1.78470537e-002 -7.89678562e-003
      -9.05166008e-003 -7.88196176e-003 -1.78549197e-002
      -1.51316049e-002 -5.83711173e-003 9.59772430e-003 -5.51620312e-003
      -1.48354303e-002 -2.40600063e-003 -6.90845167e-003 1.08998129e-003
      -9.68516059e-003 -1.39115052e-002 -1.80098377e-002 1.21152739e-003
      9.31100454e-003 -9.89366695e-003 3.12938675e-004 -4.15781484e-004
      3.92377516e-003 -5.88938966e-003 -1.63723938e-002 -1.84813458e-002
      -4.08817222e-003 -6.35747053e-003 -2.05437131e-002
      -1.34352399e-002 -1.54763814e-002 -1.19427461e-002
      -1.71350483e-002 -1.13141900e-002 -1.18533736e-002 1.11038017e-003
      6.14023767e-003 -9.34573449e-003 -8.72963946e-003 -7.55732134e-003
      -6.12697704e-003 -1.23178808e-003 9.65974323e-005 -6.13398710e-003
      -1.25166774e-003 1.48823587e-002 1.15330156e-003 1.16376835e-003
      -1.37394224e-003 2.03824486e-003 -4.13902802e-003 -1.21637573e-002
      -2.60934755e-002 1.02273992e-003 4.34216764e-003 -1.26839541e-002
      -2.60431552e-003 -6.73083216e-003 -5.18974150e-003
      -1.05998050e-002 -4.33940860e-003 -1.34364013e-002 5.12830680e-003
      8.13178439e-003 -2.70714215e-003 -1.02684100e-003 -2.96496833e-003
      -4.89057600e-003 8.93536344e-005 -2.33749044e-003 -8.60438775e-003
      -2.26884708e-003 3.62491142e-003 -5.69645222e-003 -8.73327372e-004
      -3.96940915e-004 -4.48265206e-003 -8.48510675e-003
      -8.34416226e-003 -8.24780297e-003 -1.84367772e-003
      -1.81389577e-003 -1.61454007e-002 -1.49279472e-003
      -1.87590148e-003 -6.58045523e-003 -1.61680803e-002
      -4.70066676e-003 -7.90798478e-003 1.77979097e-003 3.66754783e-003
      -4.20656614e-003 7.56165106e-003 9.78173572e-004 7.65691744e-004
      -1.56044355e-002 -1.32394973e-002 -7.61170266e-003 6.36661192e-003
      2.14849180e-003 -8.21155775e-003 -3.82021395e-003 -8.31247889e-004
      -4.28148778e-003 -8.28133058e-003 -3.87309515e-003
      -9.09947511e-003 2.71715270e-003 1.01671452e-002 3.15261073e-003
      4.98383073e-003 5.69880183e-004 4.53185244e-003 -3.41924024e-003
      -8.02653003e-003 -3.28365387e-003 1.37414541e-002 1.56293961e-003
      -2.17534974e-003 1.42251365e-002 1.52163685e-003 -4.06009052e-003
      -9.41675156e-003 -5.09749539e-003 -4.99980152e-003 5.05732652e-003
      4.29653050e-003 -1.11862440e-002 -1.27216196e-003 -7.09891738e-003
      -8.02108366e-003 -6.49924856e-003 -5.36943274e-003
      -3.42780864e-003 6.16298988e-003 8.39955080e-003 4.40714927e-003
      8.46465304e-003 -2.98887957e-003 5.16605144e-003 -1.55633059e-003
      -1.85900647e-003 -7.99735822e-003 2.42363359e-003 2.66219326e-003
      -1.03258183e-002 -5.63530810e-003 -9.62709635e-003 2.90205120e-003
      -4.76045487e-003 -8.12692940e-003 -7.44491117e-003
      -5.00231632e-004 3.23454780e-003 -1.77522991e-002 -1.39589356e-002
      -7.33112404e-003 -3.88684217e-003 -4.02619783e-003
      -1.03869382e-002 -7.05674337e-003 1.07487384e-002 2.56446842e-003
      -1.63396709e-002 -9.07959323e-003 5.12899878e-003 7.47241406e-003
      3.64853558e-003 -2.77100736e-003 -1.22630987e-002 1.08329020e-002
      3.80488718e-003 -1.15328617e-002 -5.55420574e-003 -2.88806064e-003
      7.30347994e-004 -4.71901195e-003 -9.40400269e-003 -1.66495368e-002
      8.73338990e-003 3.10022995e-004 -5.05419588e-003 6.15543686e-005
      8.31389241e-003 6.38695573e-003 -3.48178903e-004 -2.74165999e-003
      -1.70802660e-002 8.31128657e-003 1.16712716e-003 -1.59647632e-002
      -7.82695226e-003 3.89151182e-003 8.78300983e-003 2.79619545e-003
      1.51988328e-003 -7.20271468e-003 9.70781129e-003 -2.16332288e-003
      -1.69424266e-002 -1.31607717e-002 -3.34257912e-003 2.88034370e-003
      1.66504539e-003 8.39507114e-003 5.90019394e-004 7.56462663e-003
      3.43490602e-003 -1.02054449e-002 -6.13472797e-003 1.57244108e-003
      4.58967546e-003 -5.73257497e-003 -7.16614211e-003 -1.45180654e-002
      3.92372953e-003 6.56870008e-003 -1.32717555e-002 -1.07503729e-002
      -7.72713777e-003 -1.41530938e-003 -9.51938052e-003
      -7.54294731e-003 -9.46834777e-003 9.97698214e-003 -3.43173719e-003
      -2.02088319e-002 -1.37153054e-002 -2.91558099e-003 3.23000015e-003
      2.11172039e-003 1.42033566e-002 1.29219880e-002 9.72749759e-003
      -1.37547486e-005 -1.38713885e-002 -8.30407999e-003
      -3.91509268e-004 2.53533269e-003 -3.68803763e-003 -4.03781567e-004
      9.76542104e-003 1.00582400e-002 5.34178177e-003 -1.71058103e-002
      -8.93441122e-003 -5.06528839e-003 -1.21017965e-003
      -7.44362688e-003 2.30761594e-003 8.08901619e-004 1.17793623e-002
      5.31582953e-003 -3.17277783e-003 5.29047800e-004 -1.41533755e-003
      -1.42955672e-004 -5.76191023e-003 -2.77935877e-003 4.27271053e-003
      1.87456757e-002 -2.52214004e-003 -4.10713488e-003 5.16489428e-003
      8.00575316e-003 9.22598410e-003 -4.12428752e-003 -2.89190654e-003
      -2.94683315e-003 1.07495207e-003 9.08235961e-004 -1.19225793e-002
      5.85959479e-003 4.44398029e-003 8.84618983e-003 -1.46054008e-004
      2.18602800e-005 -6.91166334e-003 1.00168900e-003 4.71856399e-003
      2.52935744e-004 4.43511410e-003 3.10018216e-003 2.84797163e-004
      -5.59326727e-003 -4.12632665e-003 8.42879433e-003 1.48494169e-002
      7.27224071e-003 3.03118926e-004 5.22723375e-003 -5.01515635e-004
      1.47545175e-003 -1.96883595e-003 -8.70148186e-003 -1.48481329e-003
      7.71249738e-003 1.37098425e-003 -8.61678272e-003 -2.77586002e-003
      1.14604272e-003 4.45255172e-003 -2.92512658e-003 -2.62490893e-003
      -1.36808706e-002 -4.64251870e-003 2.98745371e-003 2.36827089e-003
      -3.38777271e-003 7.97005184e-003 7.80194160e-003 3.62106389e-003
      -6.10341784e-004 -1.86070409e-002 -3.03438777e-004 1.17978007e-002
      3.03725363e-003 7.65045220e-003 1.82238780e-003 1.84780953e-003
      3.78301181e-003 -8.64848401e-003 -4.05081455e-003 -8.86032998e-004
      1.87340565e-002 8.08738358e-003 9.15189926e-003 1.00773219e-002
      -3.18685896e-003 1.14412024e-003 -9.76840220e-003 -8.27886909e-003
      -1.09737983e-003 7.66886072e-003 7.12282071e-003 2.44358531e-003
      7.79891713e-003 9.28549562e-003 3.07458779e-003 -6.87879859e-004
      -8.98777228e-003 -2.33923551e-004 4.26864997e-003 3.61984392e-004
      -1.42748747e-003 5.00750076e-003 1.17008500e-002 -1.15931180e-004
      -3.00207245e-003 -8.10746662e-003 -1.75439601e-003 1.55656738e-002
      1.35393441e-002 9.18762479e-003 7.32566649e-003 -5.26268547e-003
      -4.16440563e-003 -5.19883586e-003 -5.00374148e-003 1.65461306e-003
      5.22157410e-003 1.12846456e-002 7.43720797e-004 -1.22330233e-003
      2.52046413e-003 -3.80449183e-003 1.50575407e-003 5.61027962e-004
      1.72516436e-003 9.12302360e-003 1.19790749e-003 5.12782903e-003
      7.46286288e-003 9.41553153e-003 -1.74374203e-003 -8.43043812e-003
      -1.54987061e-002 -3.25942296e-004 1.69230346e-002 1.24196755e-002
      1.44450096e-002 1.86572727e-002 1.57604739e-002 9.10889532e-004
      -1.55280018e-002 -1.63841285e-002 6.03523164e-004 1.26090413e-002
      8.22086632e-003 2.27645156e-003 -2.35469168e-004 3.81799345e-003
      -4.41095978e-003 -1.08088716e-003 -4.85287374e-003 5.32146264e-003
      1.98848415e-002 2.02632472e-002 7.28702126e-003 1.61974900e-003
      5.81914792e-003 -7.31900509e-004 -9.59503930e-003 -7.48477038e-003
      8.05597659e-003 1.10090645e-002 9.28575080e-003 8.12652148e-003
      1.17951110e-002 1.71036702e-002 1.04790879e-002 -9.57150199e-003
      -1.56321265e-002 -6.56976504e-003 2.25019315e-003 2.54161377e-003
      1.00651430e-002 9.46403574e-003 1.46413650e-002 1.30380709e-002
      2.61291419e-003 -1.40519598e-002 -1.38357207e-002 2.10247766e-002
      1.94499213e-002 6.67176489e-003 -1.33909262e-003 6.63861912e-003
      2.64375401e-003 -1.51242400e-002 -1.86742581e-002 2.70745344e-003
      1.42286625e-002 2.48775706e-002 1.63079966e-002 8.17468856e-003
      7.86369108e-003 5.30300615e-003 -4.89086611e-003 -2.72919592e-002
      -8.22387543e-003 -2.81943195e-003 -6.87482243e-004 1.07516330e-002
      1.38240876e-002 1.68577563e-002 1.28964074e-002 6.92784553e-003
      -1.22671165e-002 -1.82339754e-002 -5.97778184e-004
      -3.82113457e-003 1.94357289e-003 1.26868309e-002 1.61741991e-002
      2.03053560e-002 4.35788836e-003 -2.25170199e-002 -1.67644117e-002
      1.11160725e-002 2.13290527e-002 2.16548555e-002 1.80348884e-002
      1.15921358e-002 1.40044605e-002 2.02836981e-003 -2.79416852e-002
      -1.47226881e-002 1.17021073e-002 1.23738647e-002 9.39519145e-003
      1.54206855e-002 1.36017501e-002 1.31138237e-002 -1.14558395e-002
      -3.38055640e-002 -1.18190283e-002 5.36574889e-003 3.32153798e-003
      1.28626442e-002 1.25979306e-002 6.60775788e-003 -7.50931539e-003
      -1.50901051e-002 -3.59443738e-003 8.56478699e-003 1.23388143e-002
      2.87076109e-003 1.02446219e-002 -3.31961666e-003 6.79161493e-003
      -5.54384943e-003 -4.77934722e-003 -7.91088771e-003 1.28363390e-002
      -3.02256527e-003 2.49763043e-003 9.59514640e-003 6.38883142e-003
      6.13045646e-003 -6.75226375e-003 -2.24155504e-002 -2.03429647e-002
      -8.33540410e-003 9.68064275e-003 4.37093154e-003 6.66253874e-003
      -7.59326620e-003 -4.04996239e-003 -1.15167405e-002
      -2.20720042e-002 -2.14374680e-002 -1.87706912e-003 1.65930390e-002
      3.81031330e-003 3.41102947e-003 -6.00685645e-003 -4.23267437e-003
      -1.33639472e-002 -1.25655150e-002 -8.01391993e-003 1.24193747e-002
      1.23987990e-002 -1.62859634e-003 1.99089060e-003 -8.81642569e-003
      -8.51815008e-003 -1.00921560e-002 -7.05306791e-003 5.66333719e-003
      1.65364742e-002 9.11398511e-003 9.11259931e-003 7.47483550e-003
      -9.27153789e-003 -1.82400476e-002 -2.17096787e-002
      -2.49971393e-002 -1.86306369e-002 -1.40554365e-003 6.96307095e-003
      2.66620377e-003 5.24227368e-003 -2.11239723e-003 -1.53854312e-002
      -1.16024921e-002 -1.10178012e-002 3.48334410e-003 9.73967556e-003
      1.86232384e-003 -1.33466190e-002 -4.43073455e-003 -9.44511872e-003
      -1.07938116e-002 -1.36488173e-002 -2.75564985e-003 2.41730202e-004
      6.18601451e-003 7.45458575e-003 -8.48734460e-004 -3.88084073e-003
      -2.37645232e-003 -3.18298419e-003 1.01569144e-003 1.15410509e-002
      9.69550945e-003 6.33586943e-003 -8.07488163e-004 -1.04189031e-002
      -4.76204231e-003 -7.36180786e-003 -1.89623404e-002
      -1.46684609e-002 -1.36223175e-002 -1.02989245e-002 3.02476314e-004
      6.01258501e-003 -5.46245021e-004 8.62339395e-004 1.06140284e-003
      -1.06401090e-002 -1.22845666e-002 -7.20870495e-003
      -5.78053668e-003 8.25833587e-004 4.26919106e-003 -5.72071970e-003
      -6.07375428e-003 -3.05637880e-003 -1.07939364e-002
      -4.70430328e-004 7.59465387e-003 -3.14061297e-003 -4.09512408e-003
      1.01896115e-002 -5.80352498e-003 -6.00642432e-003 2.24240148e-003
      -9.29588452e-003 -1.28000462e-003 3.56612471e-003 -1.02834748e-002
      3.21763055e-003 -4.66620922e-003 -6.40645716e-003 -4.46548592e-003
      -5.68848161e-004 -1.04027763e-002 -1.65445432e-002
      -6.96642185e-003 -7.91310612e-003 -1.01481946e-002 1.66318496e-003
      -4.80125006e-003 -2.64544063e-003 1.84456329e-003 -1.00251175e-002
      -8.94341990e-003 -5.12388628e-003 -1.07533094e-002
      -2.30427249e-003 1.23500144e-002 -1.52486283e-003 2.81243440e-004
      4.44949037e-005 -9.32615530e-003 -5.99161629e-003 -2.82035721e-003
      -1.86576508e-002 -4.00109042e-004 8.17198586e-003 5.38831903e-003
      9.59786214e-003 8.58990103e-003 2.13157036e-003 -2.18361776e-004
      -2.43792334e-003 -8.86308122e-003 4.53109713e-003 5.96893672e-003
      -3.62555520e-003 -1.85246614e-003 -9.85270250e-004
      -1.22580696e-002 -8.07104632e-003 -1.05234236e-002
      -1.87758934e-002 -4.51370329e-003 2.83589943e-005 -3.28710675e-003
      1.61686132e-003 8.12995434e-003 -1.12118237e-002 -5.20659192e-003
      -1.55731281e-002 -1.56600252e-002 2.87730666e-003 4.87609068e-003
      -1.03720790e-003 4.25961660e-003 8.20845179e-003 4.04210249e-003
      9.19916260e-004 -9.26946348e-004 -5.49059547e-003 -7.35401828e-003
      -8.46110191e-003 -4.23273351e-003 -1.48679200e-003
      -1.49954390e-003 8.94115772e-004 -3.58419609e-003 -9.40824859e-003
      -1.47757875e-002 -5.62617229e-003 -2.38322449e-004
      -1.14480192e-002 1.50930916e-003 9.02105402e-003 -6.98977616e-003
      -1.06117150e-005 -7.70397345e-003 -3.86143615e-003 5.20079117e-003
      -6.78479997e-003 7.71815656e-004 -2.43968656e-003 -9.54219839e-004
      -5.34334732e-003 -2.42000283e-003 -1.20931333e-002
      -5.65215107e-003 4.86420380e-004 -5.63974073e-003 -8.50042736e-004
      1.82404544e-003 -2.62907328e-004 7.07718136e-004 -2.85030645e-003
      -4.74566733e-003 -2.15121116e-002 -3.39693041e-003 2.11803964e-003
      -4.64050885e-004 5.52011374e-003 7.39043625e-003 8.47789459e-003
      -3.59781348e-004 -2.24202755e-003 -2.35349834e-002 4.53231740e-004
      -2.97241402e-003 8.20488483e-003 4.99137305e-003 -2.08316211e-004
      -4.23830375e-003 -1.02325818e-002 -7.87103362e-003
      -8.95990152e-003 -3.25722387e-004 8.62181000e-003 5.90038905e-003
      4.17976826e-003 5.64310607e-003 7.78097101e-003 -1.11320401e-002
      -3.54965683e-003 -1.20961079e-002 7.04012485e-003 -6.06077304e-003
      -4.49588615e-003 1.32619089e-003 1.52650842e-004 -1.79728799e-004
      -2.71978485e-003 -8.58508889e-003 -1.70670524e-002 6.82554790e-004
      -2.32081721e-003 -6.41373219e-003 -5.69509435e-003
      -9.20567755e-003 -1.02496473e-002 -5.58238523e-003
      -9.63195972e-003 -5.70201222e-003 3.07377847e-003 1.19118290e-002
      3.04329512e-003 4.31606406e-003 7.53408181e-004 -9.88519823e-005
      -9.09169391e-003 -1.22112886e-003 -4.54812869e-003 1.31056895e-002
      1.23972632e-002 1.08017204e-002 1.80862192e-003 -7.62168877e-003
      -1.06791500e-002 -1.10293459e-002 2.13437786e-004 4.68554255e-003
      1.08804246e-002 -2.63474486e-003 -1.01110125e-002 -2.83534918e-003
      -7.09701562e-004 -4.04388085e-003 -3.85690504e-003
      -8.61459877e-003 -8.49657319e-003 -1.92765915e-003
      -4.15548356e-003 -6.32671919e-003 5.27895521e-003 3.57241603e-003
      -3.19463550e-003 -6.93502603e-003 -1.61448214e-002
      -9.44063906e-003 -3.38781928e-003 1.07175410e-002 6.10590400e-003
      1.99436559e-003 -1.93148013e-003 -8.89854040e-003 -8.44579190e-003
      -1.87865822e-004 -1.86590676e-003 1.80763770e-002 4.21739742e-003
      -1.50919787e-003 1.28443481e-003 1.75538391e-003 -7.61991367e-003
      -1.97990099e-003 -1.37637360e-002 -1.10697271e-002 1.28756538e-002
      -9.59080923e-003 -6.15368364e-003 2.22384278e-003 1.99006917e-003
      -1.68969564e-004 -4.46521956e-003 -1.42347142e-002
      -1.03423791e-002 -5.71322814e-003 -2.79263733e-003
      -9.39177000e-004 9.20668151e-003 6.45716116e-003 1.00118248e-003
      -4.28373879e-003 -1.33112753e-002 -1.12768700e-002
      -2.53358344e-003 -3.16037214e-003 -6.99621765e-003
      -1.31362327e-003 2.40446083e-004 -3.91219230e-003 -9.01612744e-004
      -1.05171809e-002 -9.47644375e-003 8.73598270e-004 -3.95334838e-003
      -5.08919038e-005 4.31595696e-003 7.16672326e-003 4.41122102e-003
      7.47082662e-003 -6.01581857e-003 -5.30086225e-004 3.31089739e-003
      -1.66794372e-004 1.61552615e-003 8.23769439e-003 2.37511192e-003
      -3.18325101e-003 3.61501356e-003 -1.30526666e-002 -1.58373155e-002
      -8.47773999e-003 -5.23095659e-004 1.08876999e-003 1.30284140e-002
      9.54125170e-003 -5.31570939e-003 2.77355523e-003 -7.09063932e-003
      -1.49808712e-002 -1.03437649e-002 -1.09259859e-002 2.39260565e-003
      7.79445563e-003 9.48826689e-003 3.13614914e-003 6.99206069e-003
      -5.14878007e-003 -7.18145259e-003 -9.89662297e-003
      -1.62187852e-002 3.35063320e-003 1.35054383e-002 1.34085147e-002
      3.97717673e-003 8.66621360e-003 5.09295426e-003 -1.22539159e-002
      -1.75813455e-002 6.10774895e-003 2.19486283e-005 1.01235891e-002
      7.99226016e-003 -7.14968704e-003 -1.00001181e-003 -4.89762006e-003
      -1.49213783e-002 -7.43443193e-003 2.49966816e-003 -4.69075190e-003
      -1.36079278e-003 -3.33457458e-004 -4.78298543e-003
      -1.59483426e-003 2.18707859e-003 -6.78697601e-003 2.60737911e-003
      -1.15402229e-002 1.01458468e-003 7.39240367e-003 6.99426467e-003
      4.70202300e-004 4.53660404e-003 6.10897690e-003 -8.97256564e-003
      -1.49588855e-002 -1.50894001e-002 -6.44913455e-003
      -5.91200357e-003 3.21191014e-003 1.22378732e-003 4.74950392e-003
      1.94315752e-003 -1.04518142e-002 -8.73363204e-003 -5.80181833e-004
      -8.18046555e-003 -9.93962027e-003 1.41522533e-003 7.17790378e-003
      3.22320499e-003 5.13528520e-003 -4.07490227e-003 9.10151459e-004
      4.31854511e-003 -2.26470199e-003 -8.28371849e-003 -1.18551264e-003
      7.97504093e-003 6.20834157e-003 -1.10361027e-003 -7.52425147e-003
      1.63335225e-003 -1.41953472e-002 -6.22828351e-003 -7.55248312e-003
      5.12065878e-003 9.64731909e-003 9.50776320e-003 9.60586313e-003
      -4.20681294e-003 -1.37039125e-002 -1.52881807e-002
      -1.02315117e-002 -5.48896985e-003 2.46653007e-003 4.26753191e-003
      7.48158619e-003 1.60905141e-002 5.26850997e-003 -9.97204520e-003
      1.08409906e-002 1.06233424e-002 -1.89574633e-003 -4.35531791e-003
      -3.17813549e-003 -2.31071631e-003 -8.28678254e-003
      -1.21226162e-002 3.25634191e-003 9.73152369e-003 2.06682347e-002
      9.28527862e-003 7.94860069e-003 -3.19526019e-003 -5.27573843e-003
      -1.18226176e-002 -1.96813457e-002 -5.01173921e-003
      -6.91070687e-003 -5.13587752e-003 -8.65971111e-003
      -2.34883209e-003 -4.79168445e-003 2.79349810e-003 1.32035287e-002
      6.19775383e-003 -5.15652727e-003 -6.06838753e-003 -5.44053176e-003
      -5.86683862e-003 4.35980968e-003 -3.50975944e-003 -2.36840197e-003
      -2.53118505e-003 -1.39147416e-002 -1.41360378e-002 1.18922982e-002
      1.70185920e-002 1.75323226e-002 1.94141939e-002 8.11898429e-003
      5.84895769e-003 -6.11879351e-003 -2.45016553e-002 -1.02040721e-002
      7.78823532e-003 1.24851884e-002 1.15697766e-002 1.68219432e-002
      1.70532241e-002 5.30899176e-003 -9.59093869e-003 -2.97614709e-002
      -3.62592028e-003 -5.69662778e-003 -8.34474247e-003 7.30745960e-004
      8.38925689e-003 5.71291894e-003 6.14902936e-003 9.96513991e-004
      -2.02164501e-002 -2.12205686e-002 -1.30385198e-002
      -1.20782955e-002 -1.44471216e-003 3.73097695e-003 4.13703779e-003
      9.90664028e-003 -4.04395023e-003 -2.65013147e-002 -2.22011711e-002</_></support_vectors>
  <decision_functions>
    <_>
      <sv_count>1</sv_count>
      <rho>-7.7316540274085854e-001</rho>
      <alpha>
        1.</alpha>
      <index>
        0</index></_></decision_functions></my_svm>
</opencv_storage>
